#ifndef MORSE_FL_WEIGHT_BIAS
#define MORSE_FL_WEIGHT_BIAS

#include "arm_nnfunctions.h"

namespace kimdictor_morse_fl {
namespace input {
const int32_t input_multiplier = 1077952576;
const int32_t input_shift = -7;
const int8_t input_zero = -128;
const double input_real_scale = 0.00392156862745098;
const int8_t zero = -128;
const int8_t one = 127;
};

namespace convolution_layer {
/* <Conv 1> */
/*
    in/output offset = 0
    stride = 1
    padding = 1
    dilated = 1
    activation = ReLu
    weight multiplier = 1566438259
    weight shift = -6
    bias quant is same with weight
    input dimension = N 1 / H 1 / W 64 / C_IN 1
    filter dimension = C_OUT 12 / H 1 / WK 3 / C_IN 1
    bias dimension = C_OUT 12
    output dimension = N 1 / H 1 / W 64 / C_OUT 12
*/
const cmsis_nn_tile conv1_stride = {1, 0};
const cmsis_nn_tile conv1_padding = {1, 0};
const cmsis_nn_tile conv1_dilation = {1, 0};
const cmsis_nn_activation conv1_activation = {-128, 127};
const cmsis_nn_conv_params conv1_params = {
    0, 0, conv1_stride, conv1_padding, conv1_dilation, conv1_activation};

const cmsis_nn_dims conv1_in_dims = {1, 1, 64, 1};
const cmsis_nn_dims conv1_filter_dims = {1, 1, 3, 1};
const cmsis_nn_dims conv1_bias_dims = {1, 1, 1, 1};
const cmsis_nn_dims conv1_out_dims = {1, 1, 64, 1};

const int32_t conv1_multiplier = 2045445536;
const int32_t conv1_shift = -17;
const int8_t conv1_zero = 127;
const double conv1_real_scale = 0.000007266882335805105;
const int conv1_quant_count = 1;
extern int32_t conv1_multiplier_array[];
extern int32_t conv1_shift_array[];
const cmsis_nn_per_channel_quant_params conv1_quant = {conv1_multiplier_array,
                                                       conv1_shift_array};

const q7_t conv1_weight[] = {-128, 121, 67};
const int32_t conv1_bias[] = {-18000};

const cmsis_nn_tile max1_stride = {2, 1};
const cmsis_nn_tile max1_padding = {0, 0};
const cmsis_nn_activation max1_activation = {-128, 127};
const cmsis_nn_pool_params max1_params = {max1_stride, max1_padding,
                                          max1_activation};
const cmsis_nn_dims max1_in_dims = conv1_out_dims;
const cmsis_nn_dims max1_filter_dims = {0, 1, 2, 0};
const cmsis_nn_dims max1_out_dims = {0, 1, 32, 2};

/* <Conv 2> */
/*
    in/output offset = 0
    stride = 1
    padding = 1
    dilated = 1
    activation = ReLu
    weight multiplier = 1366778980
    weight shift = -6
    weight zero = 17
    bias quant is same with weight
    input dimension = N 1 / H 1 / W 32 / C_IN 12
    filter dimension = C_OUT 24 / H 1 / WK 3 / C_IN 12
    bias dimension = C_OUT 24
    output dimension = N 1 / H 1 / W 32 / C_OUT 24
*/
const cmsis_nn_tile conv2_stride = {1, 0};
const cmsis_nn_tile conv2_padding = {1, 0};
const cmsis_nn_tile conv2_dilation = {1, 0};
const cmsis_nn_activation conv2_activation = {-128, 127};
const cmsis_nn_conv_params conv2_params = {
    0, 0, conv2_stride, conv2_padding, conv2_dilation, conv2_activation};

const cmsis_nn_dims conv2_in_dims = {1, 1, 32, 1};
const cmsis_nn_dims conv2_filter_dims = {2, 1, 3, 1};
const cmsis_nn_dims conv2_bias_dims = {1, 1, 1, 2};
const cmsis_nn_dims conv2_out_dims = {1, 1, 32, 2};

const int32_t conv2_multiplier = 1459374719;
const int32_t conv2_shift = -17;
const int8_t conv2_zero = -30;
const double conv2_real_scale = 0.0000051847405267075354;
const int conv2_quant_count = 2;
extern int32_t conv2_multiplier_array[];
extern int32_t conv2_shift_array[];
const cmsis_nn_per_channel_quant_params conv2_quant = {conv2_multiplier_array,
                                                       conv2_shift_array};

const q7_t conv2_weight[] = {-97, 109, -8, -69, -126, 20};
const int32_t conv2_bias[] = {-42038, 75227};

const cmsis_nn_tile max2_stride = {2, 0};
const cmsis_nn_tile max2_padding = {0, 0};
const cmsis_nn_activation max2_activation = {-128, 127};
const cmsis_nn_pool_params max2_params = {max2_stride, max2_padding,
                                          max2_activation};
const cmsis_nn_dims max2_in_dims = conv2_out_dims;
const cmsis_nn_dims max2_filter_dims = {0, 1, 2, 0};
const cmsis_nn_dims max2_out_dims = {0, 1, 16, 2};
};  // namespace convolution_layer

namespace fullyconnected_layer {

const int fc_input_dim = 16 * 2;
const int fc_output_dim = 37;
const int fc_hidden_dim = 0;

const double fc_weight[] = {
    -0.070954, -0.097554, 0.019963,  0.224675,  -0.216389, -0.293507, 0.268693,
    -0.123729, 0.013054,  0.015112,  -0.225790, -0.241931, -0.060428, 0.239525,
    0.115173,  0.077676,  -0.333565, -0.148069, 0.076642,  -0.314410, -0.316154,
    -0.094844, -0.216064, 0.015280,  -0.240811, -0.008298, -0.127174, -0.002143,
    -0.180550, -0.424547, -0.372942, -0.376095, -0.016273, 0.147337,  0.129919,
    0.289706,  0.189723,  -0.090806, -0.112370, -0.041609, 0.224259,  -0.135724,
    -0.160369, 0.219670,  -0.131825, -0.255702, -0.060501, -0.092094, -0.434888,
    -0.035238, -0.436394, -0.367252, -0.278426, -0.408515, 0.065443,  -0.322260,
    -0.344452, -0.366970, -0.064674, -0.318422, -0.419018, 0.142890,  -0.173390,
    -0.082137, 0.188010,  0.199181,  -0.043805, 0.020331,  0.172891,  -0.109501,
    0.131585,  0.264080,  -0.238053, -0.246208, 0.096089,  -0.033471, -0.049238,
    0.057699,  -0.020827, 0.060797,  -0.245164, -0.098207, 0.058473,  -0.189696,
    -0.058536, -0.453029, -0.152372, -0.222137, -0.403572, -0.067785, 0.029409,
    -0.466096, -0.134771, -0.209135, -0.283088, -0.232725, 0.090360,  0.153625,
    -0.048133, -0.017763, -0.174970, 0.114060,  0.015326,  0.072970,  -0.134478,
    -0.248453, 0.020103,  -0.263865, -0.016759, -0.049919, 0.110311,  -0.219768,
    -0.328390, 0.073429,  -0.354069, -0.142061, -0.155280, -0.387097, -0.054437,
    -0.256588, 0.063522,  -0.405428, -0.299041, -0.324533, -0.286694, -0.318487,
    -0.154967, -0.448212, 0.116813,  0.169975,  0.206382,  0.000598,  0.079288,
    -0.249017, 0.148865,  -0.089230, 0.237944,  0.249296,  0.263722,  -0.027800,
    -0.119888, 0.201417,  0.087166,  0.088426,  -0.413485, -0.237164, -0.114267,
    -0.214215, -0.182407, -0.222565, -0.209749, -0.025280, -0.317296, 0.051085,
    -0.488284, -0.016241, -0.427403, -0.237753, -0.007165, 0.050257,  -0.115630,
    0.089261,  -0.225988, 0.269705,  0.044046,  0.022426,  -0.269409, 0.239749,
    0.004181,  0.019282,  0.036428,  0.034747,  -0.072057, 0.207580,  0.261423,
    -0.102892, -0.016567, -0.290887, -0.130798, -0.238518, -0.088029, 0.020162,
    -0.085780, -0.437913, -0.177125, -0.376536, -0.375709, -0.243520, -0.285338,
    -0.418707, -0.271446, -0.140688, -0.182431, -0.142230, 0.103248,  0.200439,
    -0.059399, -0.174720, -0.145677, 0.291143,  -0.084407, -0.231176, 0.235856,
    -0.191738, -0.242161, -0.036787, -0.143884, 0.289341,  -0.288608, -0.102873,
    -0.482815, -0.283362, -0.180484, -0.478687, -0.040425, -0.163637, -0.452487,
    -0.052832, -0.377594, -0.326478, -0.096526, -0.167481, -0.196616, -0.009707,
    -0.035715, 0.075451,  0.168263,  -0.059902, -0.239169, 0.266229,  0.134456,
    0.259521,  -0.107931, -0.002549, -0.282633, -0.110917, 0.195935,  0.133259,
    0.054951,  -0.283543, -0.501674, -0.134948, -0.208832, -0.047371, -0.009761,
    -0.510372, -0.344684, -0.259747, -0.146356, -0.157569, -0.360196, -0.155962,
    -0.099866, 0.013000,  -0.520078, -0.043053, -0.125185, 0.017301,  0.063307,
    -0.145260, -0.089925, 0.201090,  0.013443,  0.114322,  0.009141,  -0.120206,
    -0.082541, -0.254783, 0.121146,  0.269639,  0.137815,  0.293447,  -0.412262,
    -0.032342, -0.078961, -0.340477, -0.464545, -0.129938, -0.127906, -0.049362,
    -0.397487, -0.245066, -0.120163, -0.049463, -0.249225, -0.292513, -0.351809,
    0.075705,  -0.212646, -0.131249, 0.157004,  -0.215213, -0.182867, 0.043859,
    -0.277392, 0.043801,  0.027860,  -0.098334, -0.137420, -0.041197, -0.046337,
    0.120818,  0.267208,  -0.138937, -0.003701, -0.270462, -0.114958, -0.209363,
    -0.192791, -0.025086, -0.336027, -0.323987, -0.192678, -0.457426, -0.139161,
    -0.256391, -0.151371, -0.325951, 0.084234,  -0.371223, -0.044189, 0.289418,
    0.286752,  -0.047212, -0.275488, 0.243581,  0.132981,  -0.009767, 0.095421,
    -0.053236, -0.185886, -0.153960, -0.225376, -0.031488, 0.009465,  -0.147355,
    -0.438218, -0.191374, 0.029187,  0.056380,  -0.368087, -0.137533, -0.179786,
    0.033377,  0.026202,  -0.343053, -0.025865, -0.409942, -0.355325, -0.477837,
    -0.015858, -0.470412, 0.008537,  0.248870,  0.255841,  0.196349,  0.261925,
    -0.230510, 0.213072,  -0.154881, 0.279887,  -0.031803, 0.136013,  -0.095735,
    -0.038188, 0.139288,  -0.217367, 0.069980,  -0.373687, -0.158133, 0.096274,
    -0.036411, -0.215727, -0.386269, 0.001851,  0.078926,  -0.253662, -0.199918,
    -0.372479, -0.290466, -0.019197, -0.012312, -0.428070, -0.431584, 0.010825,
    -0.043597, -0.111798, -0.077709, -0.129625, -0.267295, -0.244071, -0.129443,
    0.055206,  0.262151,  -0.132183, -0.166789, -0.289789, 0.089902,  0.041108,
    0.023544,  -0.446758, -0.143344, -0.167333, 0.069021,  -0.465978, -0.391857,
    -0.187539, 0.025615,  -0.298456, -0.162216, 0.071035,  -0.184239, -0.311303,
    -0.382990, -0.384449, -0.110686, -0.148765, 0.277480,  0.155781,  0.233061,
    0.284392,  0.042919,  -0.115047, 0.095395,  0.132119,  -0.100616, 0.277923,
    -0.277336, -0.038505, -0.073371, 0.262038,  0.231165,  0.016243,  -0.457657,
    -0.419855, 0.002022,  -0.241043, -0.373594, 0.037495,  -0.471659, -0.006116,
    0.041072,  -0.382506, -0.420465, -0.237903, -0.261107, 0.021780,  0.037686,
    0.243383,  -0.058712, 0.242517,  -0.048120, -0.181098, 0.188983,  -0.065237,
    0.083007,  -0.218908, -0.110867, -0.244057, -0.206353, -0.109056, 0.289276,
    -0.282405, -0.216491, -0.330062, -0.010948, 0.004322,  -0.032133, -0.398644,
    -0.469854, -0.255884, -0.450337, -0.219843, -0.409039, -0.169731, -0.331507,
    0.060128,  0.012572,  0.098575,  -0.092628, -0.253291, -0.184169, -0.062944,
    0.021748,  0.058881,  0.081785,  -0.149087, 0.232216,  0.010440,  0.255295,
    0.086030,  -0.219370, 0.123393,  -0.279236, -0.036798, 0.040055,  -0.004697,
    -0.303226, -0.314453, 0.035672,  -0.429414, -0.290678, -0.180469, -0.238684,
    -0.410766, 0.098548,  -0.300658, -0.454470, -0.280265, -0.007683, 0.114482,
    -0.379743, 0.221218,  0.029967,  -0.102263, -0.088877, -0.029789, 0.063582,
    -0.155799, 0.233284,  -0.136736, -0.178169, -0.078108, 0.040203,  -0.133323,
    0.160710,  0.236168,  0.180895,  -0.027889, 0.099632,  -0.356016, -0.320511,
    -0.050547, -0.386964, -0.164759, 0.038252,  -0.384444, -0.432048, 0.090484,
    -0.411791, 0.023833,  -0.309174, -0.195583, -0.201569, 0.051163,  0.145926,
    -0.129680, 0.288971,  -0.134610, -0.211286, 0.029675,  0.083412,  -0.013848,
    0.269937,  0.058670,  0.151361,  -0.167452, -0.220819, -0.082294, -0.004837,
    -0.134922, -0.212997, -0.418057, -0.303767, -0.250859, -0.079903, -0.177905,
    -0.072212, -0.309933, 0.048888,  -0.143089, -0.185812, -0.268000, -0.364762,
    -0.377679, -0.250187, 0.152198,  0.172021,  -0.037607, 0.050012,  -0.138710,
    0.128863,  0.076494,  -0.103836, -0.224675, -0.188265, -0.256888, 0.041647,
    -0.169080, 0.091443,  0.095746,  0.200031,  0.077510,  -0.353518, -0.438383,
    -0.123054, -0.084056, -0.265065, -0.413953, -0.389982, -0.195949, 0.000865,
    -0.081110, -0.138275, -0.284427, -0.326101, -0.183306, 0.013535,  -0.258508,
    0.184579,  -0.087160, 0.134249,  -0.021047, -0.263825, 0.154116,  -0.009444,
    -0.148360, 0.000565,  0.117718,  0.208574,  -0.155068, 0.159864,  -0.035379,
    -0.196311, -0.023978, 0.022655,  -0.419625, -0.356340, 0.002808,  0.070306,
    -0.312071, -0.073916, -0.482418, -0.149072, -0.371058, -0.160353, -0.343938,
    -0.385049, -0.071745, -0.070660, -0.091588, 0.041286,  -0.202241, 0.178838,
    0.249604,  0.131584,  0.023135,  -0.292689, -0.253804, -0.212154, 0.000678,
    0.037546,  -0.081484, -0.012393, 0.199656,  0.133056,  -0.265659, 0.054008,
    -0.030579, -0.238334, -0.116566, -0.302548, -0.010380, -0.482151, -0.390094,
    -0.236997, -0.287098, -0.221100, 0.053726,  -0.240497, -0.180873, 0.060970,
    0.019745,  -0.249567, 0.052150,  0.177373,  -0.291818, -0.221996, -0.165599,
    -0.100144, 0.182599,  -0.220565, -0.252167, -0.115424, 0.167868,  -0.270968,
    -0.153037, 0.076960,  -0.396001, -0.312337, -0.200758, -0.185940, -0.232562,
    0.074610,  -0.341943, -0.058849, -0.332041, -0.177195, -0.306545, -0.209700,
    -0.393704, 0.103989,  -0.373099, -0.262124, -0.230893, 0.038424,  -0.135237,
    -0.104525, 0.146710,  0.131595,  0.205337,  0.090624,  0.186334,  -0.067892,
    0.150538,  -0.022123, -0.190828, -0.110093, -0.010238, 0.140536,  -0.050261,
    -0.112436, -0.187588, -0.017352, -0.210532, -0.288781, -0.261634, -0.524995,
    -0.250874, -0.325518, -0.119978, -0.347919, -0.070605, -0.291047, -0.083501,
    -0.041773, -0.208285, -0.086077, -0.207020, 0.237161,  -0.147221, 0.103957,
    0.234413,  -0.073941, 0.077334,  -0.246061, -0.220963, 0.286278,  0.086946,
    -0.119591, -0.293620, -0.039606, -0.396523, -0.340329, -0.191778, -0.019410,
    -0.037342, -0.160722, -0.342207, -0.450564, 0.108675,  -0.026101, -0.089395,
    -0.079500, -0.160603, -0.380075, 0.030118,  -0.317719, 0.123314,  -0.251709,
    -0.062420, -0.196178, 0.095993,  0.037039,  0.011986,  0.264953,  -0.009705,
    0.267288,  0.057684,  -0.059923, -0.062458, 0.253811,  0.149304,  0.263289,
    -0.134070, -0.430381, 0.004965,  -0.268614, -0.494304, -0.311537, -0.306665,
    -0.054655, -0.007864, 0.036519,  -0.211899, -0.005818, -0.270676, -0.458477,
    -0.472386, -0.061854, 0.198060,  0.164253,  -0.118838, -0.228317, -0.236131,
    -0.116707, -0.023734, -0.200830, 0.215408,  -0.144607, -0.110551, 0.014656,
    0.288414,  0.076583,  0.137828,  -0.018857, 0.015534,  0.007201,  -0.288810,
    -0.137322, 0.013124,  -0.317474, -0.328841, -0.206259, -0.041991, -0.205631,
    -0.067074, -0.323932, -0.426884, -0.509169, -0.045798, 0.045471,  -0.151990,
    0.004418,  0.210134,  0.012120,  0.264916,  -0.114774, 0.040628,  0.164774,
    -0.193784, -0.127224, 0.003469,  -0.075844, 0.137411,  0.104434,  0.178457,
    0.145007,  -0.263825, -0.006348, -0.204434, -0.456647, -0.408413, 0.022440,
    -0.325564, 0.011302,  -0.363790, -0.140403, -0.010901, -0.169224, -0.478905,
    0.014195,  -0.129277, -0.041496, 0.153533,  -0.279104, -0.248922, -0.049754,
    0.262051,  0.228928,  -0.046727, 0.234811,  0.214055,  -0.149206, -0.132354,
    -0.000071, 0.254010,  0.171812,  -0.071838, -0.260663, -0.315778, -0.532976,
    -0.355614, -0.528113, -0.435971, -0.166606, -0.224699, -0.228799, -0.355256,
    -0.132097, -0.085574, -0.004888, -0.120140, -0.146720, 0.030643,  0.017572,
    -0.177807, 0.287667,  0.146878,  0.037858,  0.154165,  -0.237809, 0.175491,
    -0.038361, -0.124129, -0.042652, -0.223839, 0.235147,  0.102106,  -0.083157,
    -0.025140, 0.128124,  -0.261479, -0.207912, -0.380770, -0.140268, -0.064989,
    -0.272616, -0.316794, -0.207450, -0.554665, -0.263906, -0.035588, -0.036031,
    0.015438,  -0.467984, -0.117050, -0.301116, -0.253670, -0.012286, 0.080821,
    0.003799,  0.275440,  0.010441,  0.122285,  -0.127254, 0.077368,  0.138636,
    0.265424,  0.029928,  0.159214,  0.267299,  0.184175,  -0.064004, -0.233237,
    -0.401927, -0.442387, -0.106445, -0.441176, 0.041778,  0.107757,  -0.296439,
    -0.288398, -0.156303, -0.091420, -0.012010, -0.290898, -0.218392, 0.036138,
    -0.296776, 0.023692,  0.202230,  -0.057399, -0.066662, -0.033882, 0.198876,
    0.103681,  0.153698,  0.209536,  -0.055216, -0.229162, -0.252110, -0.059329,
    -0.049681, 0.180644,  0.110073,  0.042415,  -0.228462, -0.376586, -0.317060,
    -0.429205, 0.037045,  -0.409764, -0.299433, -0.297029, -0.288239, -0.190668,
    0.026207,  -0.055791, 0.065840,  0.024260,  -0.319554, 0.253297,  0.284429,
    0.013037,  0.270241,  -0.062857, -0.157584, 0.109559,  0.179036,  -0.001252,
    0.125392,  0.134654,  0.009850,  -0.184383, 0.216240,  0.202619,  0.124043,
    -0.307943, -0.208026, 0.015944,  -0.408422, -0.415496, -0.201391, -0.049260,
    -0.036294, -0.082940, -0.141982, 0.019634,  -0.377348, -0.413854, -0.449270,
    -0.013290, -0.296397, -0.183564, -0.048369, -0.169556, -0.268089, -0.049506,
    0.247133,  0.034942,  -0.186595, -0.265621, -0.041781, 0.252887,  0.258598,
    -0.169455, -0.140177, -0.076307, 0.129645,  -0.026690, -0.246976, -0.025480,
    -0.162637, -0.077172, 0.052450,  0.070297,  -0.371945, -0.184569, -0.253811,
    -0.503040, -0.335563, -0.150031, 0.074847,  -0.236995, -0.493068, -0.111402,
    -0.219035, 0.110736,  0.140790,  0.281946,  -0.071347, 0.136135,  0.223615,
    0.114873,  -0.262976, 0.214293,  -0.144697, 0.105155,  0.094295,  0.040691,
    -0.078759, -0.391993, -0.087787, -0.199144, -0.451645, 0.087936,  -0.101427,
    -0.149149, 0.127896,  -0.389572, -0.175840, -0.280081, 0.039418,  -0.253733,
    -0.404500, -0.274566, -0.179882, -0.082556, -0.156715, 0.051465,  0.019171,
    0.050141,  -0.058499, -0.108078, 0.042634,  0.100442,  0.262002,  0.225561,
    -0.013558, 0.068867,  -0.216036, -0.136946, -0.284096, 0.057121,  -0.020894,
    -0.245948, 0.051965,  -0.177284, -0.187144, -0.036348, -0.342370, -0.290867,
    -0.459908, -0.080107, -0.473708, -0.500100, -0.017167, 0.031566,  -0.375457,
    -0.128642, 0.279265,  0.141187,  -0.279548, 0.066028,  -0.258021, -0.202818,
    -0.221106, 0.125229,  -0.104985, 0.186821,  -0.231885, -0.087578, -0.181489,
    0.093603,  -0.241700, -0.186145, -0.445139, -0.212858, -0.342452, -0.092439,
    0.039681,  -0.236710, 0.022733,  -0.461788, -0.016901, 0.028961,  -0.009953,
    -0.076478, -0.438313, -0.452527, 0.071016,  0.127617,  -0.189648, 0.277831,
    -0.228824, -0.099423, -0.106908, 0.148197,  -0.294175, 0.057936,  -0.078113,
    -0.252449, -0.011142, 0.186156,  -0.061906, -0.042798, -0.068353, 0.106038,
    0.603565,  0.550793,  0.221270,  0.492426,  0.104379,  0.242812,  0.036479,
    0.323646,  0.441145,  0.332239,  0.115875,  0.070292,  0.098019,  0.066074,
    0.545436};
};  // namespace fullyconnected_layer
}
;  // namespace kimdictor_morse_fl
#endif