#ifndef MORSE_FL_WEIGHT_BIAS
#define MORSE_FL_WEIGHT_BIAS

#include "arm_nnfunctions.h"

namespace kimdictor_morse_fl {
namespace convolution_layer {
/* <Conv 1> */
/*
    in/output offset = 0
    stride = 1
    padding = 1
    dilated = 1
    activation = ReLu
    weight multiplier = 1566438259
    weight shift = -6
    bias quant is same with weight
    input dimension = N 1 / H 1 / W 64 / C_IN 1
    filter dimension = C_OUT 12 / H 1 / WK 3 / C_IN 1
    bias dimension = C_OUT 12
    output dimension = N 1 / H 1 / W 64 / C_OUT 12
*/
const cmsis_nn_tile conv1_stride = {1, 0};
const cmsis_nn_tile conv1_padding = {1, 0};
const cmsis_nn_tile conv1_dilation = {1, 0};
const cmsis_nn_activation conv1_activation = {-128, 127};
const cmsis_nn_conv_params conv1_params = {
    0, 0, conv1_stride, conv1_padding, conv1_dilation, conv1_activation};

const cmsis_nn_dims conv1_in_dims = {1, 1, 64, 1};
const cmsis_nn_dims conv1_filter_dims = {12, 1, 3, 1};
const cmsis_nn_dims conv1_bias_dims = {1, 1, 1, 12};
const cmsis_nn_dims conv1_out_dims = {1, 1, 64, 12};

const int32_t conv1_multiplier = 1566438259;
const int32_t conv1_shift = -6;
const int8_t conv1_zero = -6;
const double conv1_real_scale = 0.011397338381000594;
const int conv1_quant_count = 12;
extern int32_t conv1_multiplier_array[];
extern int32_t conv1_shift_array[];
const cmsis_nn_per_channel_quant_params conv1_quant = {conv1_multiplier_array,
                                                       conv1_shift_array};

const q7_t conv1_weight[] = {-121, 76,  -7,  -82,  92, 97,  57,  -122, 68,
                             -24,  -19, 10,  -40,  12, 24,  112, -123, -90,
                             87,   87,  87,  -64,  24, -35, 77,  86,   86,
                             -7,   -35, -19, -106, 87, 18,  82,  32,   98};
const int32_t conv1_bias[] = {52, 3, 0, -13, -44, 0, 2, 75, -89, -48, 0, -21};

const cmsis_nn_tile max1_stride = {2, 1};
const cmsis_nn_tile max1_padding = {0, 0};
const cmsis_nn_activation max1_activation = {-127, 128};
const cmsis_nn_pool_params max1_params = {max1_stride, max1_padding,
                                          max1_activation};
const cmsis_nn_dims max1_in_dims = conv1_out_dims;
const cmsis_nn_dims max1_filter_dims = {0, 1, 2, 0};
const cmsis_nn_dims max1_out_dims = {0, 1, 32, 12};

/* <Conv 2> */
/*
    in/output offset = 0
    stride = 1
    padding = 1
    dilated = 1
    activation = ReLu
    weight multiplier = 1366778980
    weight shift = -6
    weight zero = 17
    bias quant is same with weight
    input dimension = N 1 / H 1 / W 32 / C_IN 12
    filter dimension = C_OUT 24 / H 1 / WK 3 / C_IN 12
    bias dimension = C_OUT 24
    output dimension = N 1 / H 1 / W 32 / C_OUT 24
*/
const cmsis_nn_tile conv2_stride = {1, 0};
const cmsis_nn_tile conv2_padding = {1, 0};
const cmsis_nn_tile conv2_dilation = {1, 0};
const cmsis_nn_activation conv2_activation = {-127, 128};
const cmsis_nn_conv_params conv2_params = {
    0, 0, conv2_stride, conv2_padding, conv2_dilation, conv2_activation};

const cmsis_nn_dims conv2_in_dims = {1, 1, 32, 12};
const cmsis_nn_dims conv2_filter_dims = {24, 1, 3, 12};
const cmsis_nn_dims conv2_bias_dims = {1, 1, 1, 24};
const cmsis_nn_dims conv2_out_dims = {1, 1, 32, 24};

const int32_t conv2_multiplier = 1366778980;
const int32_t conv2_shift = -6;
const int8_t conv2_zero = 17;
const double conv2_real_scale = 0.009944625929290173;
const int conv2_quant_count = 24;
extern int32_t conv2_multiplier_array[];
extern int32_t conv2_shift_array[];
const cmsis_nn_per_channel_quant_params conv2_quant = {conv2_multiplier_array,
                                                       conv2_shift_array};

const q7_t conv2_weight[] = {
    60,  41,   104, 8,   -21,  58,  61,  60,  21,   5,    17,  1,    7,   -13,
    -6,  -21,  76,  -4,  0,    -23, -1,  -17, 4,    16,   -41, -67,  -43, 16,
    -14, -8,   79,  67,  110,  1,   18,  21,  39,   -17,  -5,  37,   27,  14,
    -8,  -22,  12,  16,  17,   10,  13,  13,  7,    15,   7,   -1,   -1,  8,
    3,   23,   -15, -21, -23,  13,  4,   -4,  -7,   10,   33,  8,    -7,  3,
    12,  -24,  30,  54,  25,   10,  14,  -1,  14,   64,   14,  12,   -7,  7,
    -17, -8,   4,   39,  -25,  42,  20,  -32, 17,   15,   -4,  15,   -32, -82,
    -11, -8,   -14, -3,  46,   56,  36,  -7,  -32,  8,    -11, -53,  -5,  7,
    3,   20,   -11, -19, 6,    9,   -5,  -16, 5,    -5,   13,  19,   -12, 34,
    12,  19,   6,   -7,  -8,   -13, 7,   -1,  -23,  -12,  13,  14,   -1,  -25,
    23,  12,   -11, -13, 108,  63,  63,  16,  -35,  24,   40,  65,   6,   10,
    -3,  3,    15,  10,  -17,  -48, 31,  -50, -31,  -3,   -4,  40,   10,  25,
    -26, -67,  -13, 5,   -11,  12,  76,  48,  33,   -6,   -5,  4,    -6,  0,
    -15, -9,   -15, -12, -17,  13,  1,   -6,  -12,  -5,   0,   -6,   7,   -11,
    -4,  11,   -10, -1,  -9,   14,  -12, -2,  14,   14,   -1,  3,    -4,  -10,
    -7,  -12,  -12, 8,   -5,   10,  -21, -45, -22,  47,   -56, -7,   -13, -29,
    -51, -2,   9,   1,   11,   -2,  3,   66,  36,   -107, 47,  23,   -42, -19,
    14,  16,   58,  -11, -50,  15,  -17, 10,  17,   -121, -71, 24,   -19, -36,
    -70, -127, -89, 3,   6,    -27, -33, -25, -4,   -2,   0,   -8,   13,  15,
    -8,  33,   -25, 21,  43,   43,  -5,  -98, -117, -56,  53,  71,   43,  -4,
    11,  -11,  -27, -77, -58,  11,  35,  11,  18,   -22,  -31, 8,    14,  -14,
    -21, -12,  8,   16,  10,   -16, -14, -6,  -9,   -23,  -9,  -6,   -7,  7,
    22,  19,   0,   7,   11,   23,  16,  15,  -7,   17,   28,  -35,  -35, 5,
    4,   2,    -12, -13, -8,   -1,  13,  -24, -42,  -15,  -24, -10,  4,   -7,
    12,  11,   -1,  12,  20,   6,   17,  18,  -1,   -22,  -29, 13,   20,  23,
    -3,  10,   9,   2,   -7,   -13, -61, 2,   -10,  -32,  -52, -83,  -96, 22,
    20,  20,   -23, -44, -25,  2,   8,   -11, 5,    5,    4,   -7,   -14, 7,
    28,  32,   4,   -52, -103, -77, 37,  42,  37,   13,   6,   14,   -9,  -46,
    -33, 17,   34,  -3,  29,   39,  44,  -24, 32,   1,    -24, 22,   35,  -13,
    -1,  -16,  -16, 2,   -7,   -44, 17,  14,  -21,  -2,   -16, 40,   59,  50,
    -35, -6,   -59, -4,  -3,   0,   -94, -3,  -26,  -50,  -10, -53,  31,  -21,
    -5,  9,    23,  8,   16,   18,  18,  -11, -4,   -13,  15,  -8,   15,  1,
    0,   20,   24,  7,   -12,  -4,  1,   6,   7,    28,   -2,  1,    13,  -5,
    39,  21,   40,  23,  26,   4,   -13, 8,   7,    -14,  2,   0,    -18, -4,
    -8,  11,   5,   2,   9,    5,   -16, -6,  -3,   12,   -6,  -17,  -18, -12,
    -17, -12,  -1,  -19, -16,  1,   -7,  9,   -2,   13,   2,   -10,  -16, 5,
    22,  24,   58,  13,  17,   2,   30,  64,  26,   -4,   8,   13,   -2,  9,
    15,  -33,  33,  3,   -28,  3,   -14, 33,  39,   38,   -41, -29,  -30, 5,
    -16, 12,   25,  21,  58,   -29, -13, -21, 36,   17,   15,  10,   41,  15,
    41,  42,   61,  15,  15,   -6,  13,  12,  2,    29,   6,   28,   7,   -1,
    8,   -4,   -12, -13, -24,  -8,  -13, 16,  11,   14,   70,  81,   104, 4,
    15,  32,   -29, -42, -7,   4,   21,  -8,  -29,  -11,  -3,  -14,  -10, 8,
    -16, -15,  -10, 11,  38,   -5,  11,  18,  -17,  -19,  -41, 26,   35,  23,
    -35, 9,    7,   -3,  -14,  -15, -21, 10,  19,   -28,  2,   0,    -3,  -5,
    -8,  -12,  -16, -16, 7,    8,   13,  17,  14,   -8,   16,  2,    9,   -13,
    1,   -2,   -17, 3,   -17,  -11, 12,  -14, 16,   10,   -17, -3,   -17, 11,
    13,  6,    1,   -4,  -9,   -15, 12,  2,   -15,  8,    -15, -6,   -10, -1,
    6,   7,    -15, 4,   -2,   -9,  -18, -3,  -8,   -2,   -7,  11,   -16, 5,
    -14, 10,   0,   -1,  -13,  -1,  -4,  -12, -6,   6,    9,   -2,   -5,  2,
    6,   -14,  -11, 3,   16,   -14, -1,  -15, -9,   -11,  -2,  -15,  2,   -1,
    16,  -15,  2,   -12, -14,  -7,  -11, 8,   -15,  -12,  17,  2,    -6,  2,
    15,  -7,   6,   -1,  11,   -7,  -9,  34,  1,    -2,   45,  -43,  75,  20,
    25,  -14,  6,   16,  10,   -9,  14,  -19, 49,   10,   -20, 30,   -38, 30,
    35,  28,   -81, 14,  -117, 4,   -9,  11,  -7,   65,   -56, -38,  17,  -79,
    22,  60,   53,  -8,  22,   -5,  59,  52,  45,   -13,  9,   13,   -2,  5,
    -1,  -6,   32,  15,  -25,  4,   -26, 15,  20,   20,   -67, -8,   -63, 15,
    6,   9,    59,  86,  88,   3,   30,  -18, -66,  3,    21,  34,   9,   -24,
    11,  12,   -27, 0,   -12,  -7,  -13, 3,   14,   27,   -4,  -19,  38,  -5,
    -26, -18,  15,  15,  34,   2,   9,   10,  -15,  3,    -22, -1,   -30, 22,
    4,   -15,  14,  -43, 111,  -18, 13,  44,  -29,  -34,  -11, 1,    7,   -7,
    -2,  17,   -1,  -42, 34,   3,   -30, 30,  48,   9,    -67, -123, -60, 58,
    79,  13,   7,   4,   -22,  10,  -38, -42, 10,   44};
const int32_t conv2_bias[] = {-34, -3,  4,  -11, 19, 1,   3,  -19,
                              10,  -3,  -6, 43,  -8, 13,  36, -19,
                              -13, -17, -3, -8,  34, -25, 5,  -14};

const cmsis_nn_tile max2_stride = {2, 0};
const cmsis_nn_tile max2_padding = {0, 0};
const cmsis_nn_activation max2_activation = {-127, 128};
const cmsis_nn_pool_params max2_params = {max2_stride, max2_padding,
                                          max2_activation};
const cmsis_nn_dims max2_in_dims = conv2_out_dims;
const cmsis_nn_dims max2_filter_dims = {0, 1, 2, 0};
const cmsis_nn_dims max2_out_dims = {0, 1, 16, 24};
};  // namespace convolution_layer

namespace fullyconnected_layer {

const int fc_input_dim = 16 * 24;
const int fc_output_dim = 37;
const int fc_hidden_dim = 0;

const double fc_weight[] = {
    0.220208,  -0.417267, -0.208164, -0.213054, -0.197442, -0.188980, -0.198090,
    0.071403,  0.166033,  0.217721,  -0.065902, -0.081023, 0.118766,  0.089683,
    0.081484,  0.090376,  0.008967,  0.017967,  0.117563,  -0.040309, -0.039468,
    0.066784,  0.001504,  -0.017805, -0.239880, -0.032148, -0.290768, 0.075245,
    -0.128073, -0.100342, 0.060560,  0.018226,  0.209184,  -0.217888, -0.139081,
    -0.104297, 0.020063,  -0.075011, -0.134563, -0.126824, 0.123179,  0.024585,
    -0.077037, -0.140049, 0.007530,  0.055654,  0.015001,  0.018807,  -0.094667,
    0.071403,  -0.003033, 0.027351,  0.028707,  -0.024267, 0.040252,  0.002180,
    0.032939,  -0.212572, -0.051655, -0.050535, 0.068629,  -0.068934, -0.109802,
    -0.110700, 0.206938,  -1.128431, -0.295938, -0.393060, -0.558908, -0.281057,
    -0.063916, 0.273943,  -0.076176, 0.076867,  -0.103956, -0.104738, -0.105932,
    0.034029,  -0.041526, 0.090996,  0.036170,  -0.083805, -0.001373, 0.056125,
    0.013068,  0.101620,  -0.096397, -0.022213, -0.051150, -0.050475, -0.104906,
    0.003885,  0.044505,  0.101312,  0.045886,  0.028729,  0.333471,  0.210312,
    -0.127983, 0.213608,  0.125081,  0.088829,  -0.315878, -0.028064, 0.057518,
    0.055186,  0.168263,  -0.522646, 0.038942,  0.026164,  -0.031345, -0.143489,
    -0.521338, 0.169713,  -0.048122, 0.086476,  0.129019,  0.135784,  0.017117,
    -0.040043, -0.170411, -0.210538, -0.051043, -0.106589, -0.021099, -0.000205,
    -0.003412, -0.006384, 0.027104,  0.032565,  -0.037154, 0.048157,  0.091837,
    0.044667,  0.036484,  -0.147343, -0.176114, -0.105272, -0.084836, 0.029693,
    -0.086617, 0.043075,  0.065927,  0.084857,  -0.071229, 0.137287,  0.103384,
    -0.060597, -0.133322, 0.085576,  -0.030521, 0.065079,  0.055710,  -0.067801,
    0.064021,  0.039149,  0.020863,  0.070164,  0.024694,  -0.090359, -0.188324,
    0.019500,  -0.009285, 0.047355,  0.129571,  0.048520,  0.147600,  0.088359,
    -0.113854, -0.309981, -0.143138, -0.293739, -0.096358, -0.083828, -0.050762,
    -0.086307, 0.159670,  -1.019400, -0.403992, -0.815172, -0.747481, -0.366718,
    -0.219645, -0.121372, -0.086402, 0.066567,  0.032993,  -0.045346, -0.014416,
    -0.055075, -0.004617, -0.106210, -0.155393, -0.023661, 0.102718,  0.027361,
    0.136912,  0.178929,  0.008251,  0.002322,  -0.084455, 0.048053,  -0.217373,
    -0.676253, -0.058025, 0.068406,  0.218750,  -0.111640, -0.128030, -0.054258,
    0.083472,  -0.089366, 0.110577,  0.015686,  -0.055481, -0.109200, 0.088083,
    -0.018977, 0.001312,  0.038360,  -0.073666, 0.001453,  -0.008970, -0.105600,
    0.253331,  -0.777178, -0.625426, -0.864803, -0.970350, -0.349022, -0.086217,
    0.177829,  0.078297,  0.081755,  -0.128291, 0.061694,  -0.125683, -0.079743,
    0.002274,  -0.013123, -0.133216, -0.033290, 0.126688,  -0.068515, 0.060252,
    -0.023501, 0.026993,  0.033478,  -0.082879, 0.100564,  -0.459297, -0.042817,
    -0.035274, -0.027693, -0.061149, 0.069615,  -0.273142, 0.058013,  0.044873,
    0.097064,  0.033961,  0.103055,  0.139250,  0.014219,  -0.137186, -0.031598,
    -0.040328, -0.221625, 0.016329,  0.051803,  0.025714,  0.004197,  0.072831,
    0.015342,  0.006410,  -0.040241, 0.039491,  -0.105196, 0.000412,  0.040140,
    0.106229,  -0.111613, 0.037606,  -0.013363, 0.097797,  0.010873,  0.099438,
    -0.006269, 0.094192,  0.009530,  0.032672,  -0.060610, 0.072587,  -0.114181,
    -0.137937, -0.032956, -0.129507, -0.096207, -0.054328, -0.117568, 0.061012,
    0.039306,  0.044807,  -0.021497, 0.063393,  -0.036434, -0.024540, -0.108032,
    -0.051073, -0.032727, -0.023274, 0.071278,  0.054607,  -0.081470, 0.016953,
    0.074623,  -0.045783, -0.103632, -0.041534, 0.088026,  0.201639,  -1.251971,
    -0.503206, -1.113361, -0.719765, -0.158586, 0.183518,  0.354733,  -0.016508,
    0.145364,  0.020733,  -0.098834, -0.004344, -0.094669, 0.003238,  0.052786,
    0.010863,  -0.094995, -0.358354, -0.181963, -0.381227, -0.093846, -0.006692,
    -0.089433, 0.180756,  0.062681,  -0.068371, -0.002611, 0.082637,  -0.085500,
    0.034957,  0.025222,  -0.065727, -0.311117, 0.068424,  0.166478,  0.003898,
    -0.019119, 0.039847,  -0.085739, -0.016794, -0.258703, -0.074263, -0.402893,
    -0.108872, -0.060402, -0.068139, -0.004632, -0.226776, 0.192883,  -0.011354,
    0.242487,  0.083460,  0.159618,  -0.021780, -0.347042, -0.135236, 0.227326,
    -0.307574, -0.104591, 0.030358,  -0.020146, -0.083198, 0.039682,  -0.393068,
    0.062259,  0.025888,  0.039432,  -0.131769, -0.127067, -0.057162, 0.027913,
    0.117312,  0.131621,  -0.067568, 0.111847,  0.011805,  -0.012641, -0.020262,
    0.008818,  0.114976,  0.025104,  -0.030812, -0.086265, 0.000066,  0.037979,
    0.092350,  -0.081667, -0.102419, 0.071531,  -0.058158, -0.045848, -0.075627,
    -0.079471, -0.110512, -0.064252, -0.455428, -0.065662, -0.039758, 0.001754,
    -0.250752, 0.021330,  0.040635,  -0.106407, 0.225905,  -0.063241, 0.073975,
    0.012566,  -0.141948, -0.145633, -0.042783, -0.111469, 0.090839,  -0.089035,
    0.069905,  -0.044495, -0.081994, -0.096352, -0.088466, -0.035084, 0.091833,
    -0.201356, -0.234369, -0.122744, 0.051278,  0.016358,  0.031945,  0.018034,
    -0.403265, 0.323244,  0.097480,  -0.303030, -0.546425, -0.407102, -0.232959,
    -0.053814, -0.007624, -0.060421, 0.035083,  -0.105003, 0.047191,  0.068702,
    0.029331,  -0.024887, -0.021321, -0.005987, 0.031772,  -0.108413, -0.105145,
    0.082543,  0.068021,  0.102979,  0.000675,  0.023450,  -0.116442, 0.073340,
    -0.072990, -0.108718, 0.064143,  0.058691,  -0.184867, -0.460883, -0.213250,
    0.131351,  0.142395,  0.000742,  -0.168552, -0.158089, -0.043811, 0.203051,
    -0.060258, -0.264923, -0.165099, -0.146897, -0.117718, -0.023702, 0.033734,
    -0.013224, -0.048071, -0.003589, 0.015865,  0.132407,  0.153932,  -0.088424,
    0.081561,  -0.396936, -0.342312, -0.081842, -0.021381, 0.027120,  -0.121508,
    0.034825,  0.015447,  -0.092861, -0.093930, -0.027295, 0.153642,  0.154756,
    0.062766,  -0.058146, -0.155963, -0.014553, 0.026527,  -0.031821, 0.011544,
    -0.026011, -0.128069, 0.076877,  0.076027,  -0.036268, -0.063169, 0.005071,
    -0.090600, 0.087766,  -0.022914, 0.092191,  -0.095092, -0.012035, -0.218291,
    0.038070,  0.026527,  0.058148,  -0.142679, -0.103732, -0.008382, -0.073999,
    -0.041578, 0.030793,  0.030085,  -0.036427, 0.025234,  0.074278,  -0.146801,
    -0.219820, -0.220236, -0.190191, -0.199945, 0.080586,  -0.023056, -0.137222,
    -1.418074, -0.271082, 0.504193,  0.184024,  -0.716846, -0.371542, -0.230850,
    -0.114720, -0.036388, -0.084019, 0.061874,  -0.127272, 0.039657,  0.051528,
    -0.116564, 0.045196,  0.065560,  0.059636,  0.061380,  0.102341,  0.143852,
    -0.011392, 0.083226,  -0.025320, -0.086134, -0.107244, -0.163888, -0.264662,
    -0.108488, -0.098037, -0.072584, 0.060261,  0.045684,  0.068218,  -0.124186,
    0.010874,  -0.084221, -0.106925, -0.123667, -0.035624, 0.077644,  0.057310,
    0.050574,  -0.088468, -0.096141, 0.093431,  0.008604,  -0.075795, -0.307318,
    0.197344,  0.093309,  -0.048145, -0.500516, -0.419347, -0.105636, 0.098279,
    0.084659,  0.114884,  -0.037649, 0.010385,  0.080542,  -0.091220, 0.062150,
    0.019027,  0.054768,  0.016347,  -0.088305, 0.057405,  -0.045060, 0.107513,
    0.097645,  0.047793,  -0.099624, 0.172518,  -0.234721, -0.186830, 0.033161,
    0.107914,  -0.108276, -0.081275, -0.063169, 0.037051,  -0.157365, 0.193672,
    -0.061994, -0.008375, -0.061956, 0.018814,  -0.033874, -0.043476, -0.427903,
    -0.216865, 0.037578,  0.054781,  0.058036,  -0.114877, -0.015001, 0.088329,
    0.097547,  -0.106423, -0.029149, -0.097485, 0.013832,  -0.037415, 0.056832,
    -0.025469, 0.086056,  0.057269,  -0.106395, 0.117987,  -0.108672, 0.062916,
    0.005401,  0.000058,  -0.026901, 0.014577,  0.057753,  -0.077239, -0.003648,
    -0.028218, -0.062129, -0.029327, -0.028476, -0.001473, 0.060193,  0.004214,
    0.025227,  0.006241,  -0.090973, 0.014458,  -0.028992, 0.068757,  0.036983,
    0.072737,  -0.080714, -0.017833, -0.071730, -0.097982, -0.080250, 0.080982,
    -0.075407, 0.097465,  -0.068721, 0.048805,  -0.989204, -0.038863, 0.082110,
    -0.310341, -0.756851, -0.225525, 0.132964,  0.055126,  -0.014858, 0.147319,
    -0.024154, -0.135487, -0.034376, -0.105465, -0.137033, 0.065130,  -0.152603,
    0.101817,  0.090599,  -0.078388, -0.127760, -0.123241, -0.101460, 0.065631,
    0.017042,  0.032442,  0.033545,  -0.099341, -0.119552, -0.002514, -0.140990,
    -0.033075, -0.021618, 0.160083,  -0.119162, -0.028192, 0.060245,  0.005754,
    0.032211,  -0.155918, 0.021240,  -0.123098, -0.179848, -0.339948, -0.076313,
    0.088624,  0.060736,  -0.077125, 0.151385,  -0.178900, -0.077210, 0.101158,
    -0.043095, -0.028824, -0.008479, -0.107192, -0.285151, -0.016560, -0.160951,
    0.017173,  -0.097414, 0.059244,  0.115983,  -0.099188, -0.393617, 0.119295,
    -0.114785, 0.039936,  0.082020,  0.078500,  -0.074123, -0.265058, -0.500433,
    -0.362015, -0.076942, -0.058671, -0.055919, 0.134330,  0.107046,  0.073956,
    0.081567,  -0.078799, 0.010411,  -0.136593, 0.049340,  0.075482,  0.007786,
    0.026937,  -0.016251, 0.037664,  -0.208773, -0.183261, 0.006967,  -0.036590,
    0.025323,  0.073122,  -0.530622, -0.038055, -0.099097, -0.111615, -0.070767,
    0.036753,  -0.130128, -0.070138, -0.101021, -0.065631, -0.100654, -0.129725,
    0.000800,  -0.067711, 0.023884,  0.080809,  -0.050543, 0.072059,  -0.107809,
    0.082295,  0.020661,  0.168381,  0.043842,  0.005357,  0.201037,  0.095748,
    -0.010047, 0.101648,  -0.096648, -0.052264, -0.060373, 0.029566,  -0.428350,
    -0.457875, -0.616515, 0.095508,  0.002215,  -0.193124, -0.326097, -0.370902,
    -0.294029, -0.116814, 0.029395,  0.041450,  0.036661,  0.003150,  -0.068292,
    -0.066133, -0.089748, 0.036998,  -0.072037, -0.041673, 0.007599,  0.028761,
    0.019747,  -0.008363, 0.124506,  -0.087358, 0.001673,  0.001589,  0.057253,
    0.064218,  0.057910,  0.076376,  -0.076919, 0.141402,  0.017704,  -0.359938,
    -0.026457, 0.159058,  0.344604,  0.226945,  0.112982,  -0.135848, -0.055534,
    0.088755,  0.055081,  -0.214644, -0.062208, 0.068920,  0.023460,  -0.040393,
    0.054296,  0.158691,  0.107786,  0.103470,  -0.046948, -0.007522, 0.086588,
    0.294614,  0.170812,  0.043193,  -0.134431, -0.051633, -0.045312, -0.054032,
    0.046025,  -0.110239, 0.125078,  0.006929,  -0.091507, 0.051364,  -0.118177,
    0.127545,  -0.022289, 0.083740,  0.000512,  0.025910,  0.012974,  -0.139440,
    0.023857,  0.071353,  0.066035,  -0.107139, 0.096035,  -0.056748, 0.078218,
    -0.030432, -0.016754, 0.011660,  0.138035,  0.118839,  -0.015157, 0.000667,
    -0.032582, 0.073268,  -0.060042, -0.074486, 0.162046,  -0.092835, 0.151998,
    0.050775,  0.086692,  -0.022634, 0.146521,  0.158052,  0.075878,  0.230823,
    -0.015191, 0.130241,  -0.140160, -0.109780, -0.047147, 0.057614,  -1.062886,
    -0.486116, -0.713923, -0.144109, -0.156977, -0.158969, -0.180065, 0.167911,
    0.016540,  0.101460,  0.150837,  -0.058722, -0.019994, 0.087647,  -0.113824,
    0.065296,  0.066017,  -0.041137, 0.046805,  -0.115570, -0.135544, 0.065373,
    0.004939,  0.054484,  0.034926,  -0.012190, -0.022961, -0.135511, -0.101433,
    -0.306085, -0.101823, -0.147965, 0.086390,  -0.057251, -0.063572, 0.017239,
    -0.117222, 0.085363,  -0.118690, -0.096841, 0.069218,  0.101996,  -0.068994,
    -0.085102, -0.070015, 0.111178,  0.022207,  -0.085045, -0.411587, -1.241980,
    -0.799013, 0.109980,  0.129109,  -0.017707, -0.341828, -0.085232, -0.183789,
    -0.181075, -0.018770, 0.055469,  -0.005037, -0.095042, -0.007354, -0.014043,
    0.158856,  -0.117641, 0.025947,  -0.021204, -0.107691, 0.112453,  0.154775,
    0.010432,  -0.105541, -0.047891, -0.227353, -0.063749, 0.031046,  -0.089833,
    0.031966,  0.095236,  -0.037712, -0.081907, 0.174389,  0.028699,  -0.080522,
    -0.102677, 0.205693,  0.052688,  0.140667,  0.130936,  -0.111635, -0.120717,
    -0.315680, -0.045287, -0.012507, -0.021152, -0.114567, -0.081485, -0.053993,
    0.027587,  -0.097357, 0.080526,  0.052401,  -0.009853, -0.112325, -0.033395,
    -0.013850, 0.049897,  -0.012224, 0.036700,  0.068388,  -0.060913, -0.040861,
    0.047710,  0.020913,  0.086221,  -0.078103, -0.028645, -0.119337, 0.015755,
    0.033406,  0.041030,  0.034285,  0.080594,  0.011902,  0.118155,  0.156871,
    0.056680,  0.082867,  0.074363,  -0.055013, -0.104941, 0.014267,  0.085879,
    -0.093096, 0.088185,  -0.031404, -0.101302, 0.042768,  0.096239,  0.001551,
    0.005577,  -0.099931, 0.103405,  -0.767265, -0.548001, -0.604101, -0.186617,
    -0.047591, -0.112144, -0.230103, -0.461083, -0.207556, -0.166327, 0.080407,
    -0.075128, -0.106462, 0.006628,  -0.120809, -0.029284, -0.023422, -0.198739,
    -0.152887, -0.007201, -0.031345, 0.064395,  -0.084818, -0.256781, -0.366785,
    -0.180820, -0.186523, -0.004495, -0.004899, -0.044023, 0.084575,  -0.085922,
    0.110044,  0.187705,  -0.147576, 0.081984,  -0.183318, -0.035298, -0.108287,
    0.203042,  0.175860,  0.111837,  -0.095727, 0.061210,  0.057535,  -0.172232,
    -0.026839, 0.070669,  0.079287,  0.072185,  0.050517,  -0.220632, -0.051634,
    -0.024938, 0.110665,  0.056550,  0.141518,  0.140350,  -0.113935, -0.342383,
    -0.265662, 0.058958,  0.011432,  0.095916,  -0.312232, 0.016013,  -0.370898,
    -0.172418, -0.162431, -0.168953, -0.371770, -0.805617, -0.772259, -0.313106,
    -0.101056, 0.142567,  0.134733,  0.140063,  0.084198,  -0.033772, 0.091921,
    -0.054513, 0.115428,  -0.039574, 0.119593,  0.075326,  0.103640,  -0.091760,
    0.061313,  -0.195256, -0.324116, -0.155634, -0.013029, -0.137686, 0.069700,
    -0.009547, -0.644998, 0.092274,  -0.178404, -0.157770, -0.139788, -0.091949,
    -0.175962, -0.262563, -0.359451, -0.193736, -0.052030, 0.014194,  -0.086012,
    0.102914,  -0.043029, 0.047067,  -0.023105, 0.138713,  -0.020087, 0.006334,
    0.102229,  0.087804,  0.039891,  -0.040244, 0.192441,  0.018842,  -0.041624,
    -0.061941, 0.047716,  -0.092454, -0.045228, -0.047119, -0.403739, -0.267828,
    -0.710716, -0.657203, -0.917525, -0.675934, -0.385742, -0.263628, -0.168774,
    -0.160893, -0.116609, 0.093991,  -0.067410, 0.101226,  0.110834,  0.016553,
    -0.109152, 0.034227,  -0.043532, -0.091738, 0.013927,  0.106070,  0.019842,
    0.011215,  -0.038987, 0.105925,  -0.023172, 0.056548,  0.071739,  -0.081723,
    -0.058451, 0.063102,  0.069019,  0.184837,  0.062273,  0.157612,  0.292558,
    0.322910,  0.352270,  0.190937,  0.052968,  -0.117868, -0.208936, -0.210112,
    -0.110558, 0.101170,  -0.053091, -0.107500, 0.227563,  0.021604,  0.042371,
    0.009349,  0.199735,  0.118390,  0.028409,  0.173634,  0.208049,  0.301923,
    0.135958,  -0.200357, -0.169039, -0.058595, 0.060291,  -0.128525, 0.016940,
    -0.083645, 0.055803,  0.163287,  0.033198,  0.195408,  -0.027092, -0.015630,
    0.061889,  -0.020655, -0.038970, -0.133395, -0.065158, -0.039232, -0.092427,
    -0.114056, 0.027968,  -0.082151, 0.007769,  0.047202,  -0.015471, 0.137273,
    0.112621,  0.090446,  -0.047586, -0.004242, 0.135437,  -0.114624, 0.056441,
    -0.114984, 0.028506,  0.002621,  0.072898,  0.109800,  0.044601,  0.124005,
    -0.002174, 0.081541,  0.091526,  0.146269,  0.082784,  0.075257,  0.009972,
    -0.142332, -0.129453, -0.203122, -0.108711, 0.066630,  -1.288733, -0.646706,
    -0.561225, -0.477857, -0.809189, -0.631406, 0.182580,  0.044213,  0.099878,
    0.155123,  0.072033,  -0.026672, -0.023920, 0.092456,  0.083110,  -0.062353,
    0.042252,  -0.056825, 0.145435,  0.150931,  0.158122,  0.108377,  0.074145,
    -0.075783, 0.106022,  -0.064057, -0.217268, -0.230124, -0.283797, -0.155662,
    -0.020148, 0.045783,  -0.014043, -0.037179, -0.017201, 0.084135,  -0.064875,
    0.084948,  -0.068586, -0.080208, -0.057354, -0.053940, 0.038802,  -0.043927,
    -0.033302, 0.034227,  0.075243,  0.023727,  -0.408593, -1.204729, -1.072212,
    -1.323382, -1.033694, -1.030371, -0.317835, -0.217286, 0.102345,  0.105577,
    -0.125886, 0.040779,  -0.063582, -0.004428, -0.062667, -0.035944, 0.058577,
    0.019532,  -0.000523, -0.012050, -0.023065, 0.159263,  -0.066045, -0.142136,
    -0.221160, -0.322380, -0.245873, -0.033640, -0.019152, 0.020529,  0.093064,
    0.052790,  0.109752,  0.029453,  0.112384,  0.016655,  0.047530,  0.130964,
    0.168118,  -0.036453, 0.042070,  0.041580,  0.116021,  -0.427447, -0.060224,
    -0.114317, 0.020302,  -0.032256, 0.022404,  -0.107606, 0.097974,  -0.078034,
    0.078127,  -0.017912, 0.087439,  0.124975,  0.096719,  -0.055726, 0.086940,
    0.077146,  -0.055818, -0.064887, -0.030664, 0.010816,  0.021074,  0.017913,
    -0.016254, -0.009248, 0.007142,  -0.109974, 0.037913,  -0.102465, -0.004066,
    0.055043,  0.074583,  0.089997,  0.078778,  -0.058156, -0.051074, 0.034286,
    0.086971,  0.032721,  0.099553,  -0.056633, -0.096637, -0.115374, -0.077974,
    0.020200,  -0.041458, -0.116574, -0.111591, 0.000817,  0.103853,  0.093364,
    -0.016211, 0.051882,  -0.740838, -0.408943, -1.066849, -0.958373, -1.103191,
    -1.021591, -0.625624, -0.405478, -0.021736, -0.088701, 0.025175,  -0.042521,
    0.112450,  0.002296,  -0.103554, 0.020681,  -0.009562, -0.209435, -0.232433,
    -0.523228, -0.266530, -0.297633, -0.260055, -0.635812, -0.179422, -0.226926,
    -0.197199, -0.087001, -0.114313, 0.054728,  0.082791,  0.096897,  -0.041312,
    0.156775,  0.077398,  0.187677,  0.087382,  0.087027,  0.204679,  0.116586,
    0.071057,  0.123158,  -0.160743, -0.282452, 0.019654,  -0.134064, -0.052361,
    -0.073625, 0.138993,  0.080881,  0.193004,  0.218550,  0.235739,  0.243511,
    0.038166,  0.006495,  0.164174,  -0.025542, -1.018218, -0.192695, -0.418999,
    -0.037813, -0.065892, 0.116257,  -0.297640, -0.027393, -0.194375, -0.112537,
    0.061500,  -0.011975, 0.005042,  0.015462,  0.131541,  0.198670,  0.014196,
    0.047363,  0.035473,  -0.049229, 0.050639,  0.080859,  0.121284,  0.079490,
    0.026610,  -0.037791, -0.168185, 0.013294,  0.069392,  0.019022,  0.022260,
    0.083488,  0.033656,  -0.004730, -0.106853, -0.036940, 0.013290,  0.003141,
    -0.627329, 0.027568,  -0.159782, -0.062591, 0.103653,  0.024608,  0.193150,
    0.114546,  0.020121,  -0.042123, 0.032969,  -0.121600, -0.044493, -0.003378,
    0.038484,  -0.077135, 0.004084,  -0.028601, 0.129512,  -0.106962, -0.100444,
    0.005847,  0.096874,  -0.087163, -0.014686, -0.159149, -0.147492, -0.163256,
    0.066116,  0.059790,  -0.013902, 0.063596,  -0.347300, -0.399095, -0.448612,
    -0.006848, 0.066069,  -0.120121, -0.182833, -0.071959, 0.098375,  0.095750,
    -0.063094, 0.051807,  -0.061738, 0.027405,  -0.157186, -0.137226, -0.141186,
    0.047855,  -0.102356, -0.014241, -0.013093, -0.047768, 0.000603,  0.113707,
    -0.073696, -0.096430, -0.013486, -0.073617, -0.117350, -0.039337, -0.010248,
    0.087314,  -0.295982, 0.040450,  0.049052,  -0.323740, -0.055288, -0.009724,
    -0.270568, -0.154297, -0.067530, 0.080841,  0.079564,  -0.524354, -0.064476,
    0.014560,  0.018535,  0.060469,  0.058726,  -0.043766, 0.030602,  0.050625,
    0.028985,  -0.075249, 0.086560,  0.112992,  -0.144198, -0.182381, -0.206608,
    -0.093226, 0.036502,  0.015346,  -0.103032, -0.107000, -0.133200, -0.128517,
    0.172407,  0.099886,  -0.101117, 0.073609,  -0.081936, 0.030431,  -0.028425,
    -0.164200, -0.064943, -0.155128, 0.032934,  0.075273,  -0.103145, -0.086866,
    -0.058845, -0.032516, -0.091234, 0.093860,  0.020917,  0.056389,  0.007686,
    -0.120521, 0.047716,  -0.232757, -0.066990, -0.112899, 0.023366,  -0.042277,
    0.060534,  -0.004151, 0.031284,  0.029928,  0.144704,  0.011403,  0.150229,
    -0.008592, 0.008345,  -0.028507, 0.002547,  -0.153844, -0.141081, -0.162254,
    -0.070402, -0.083951, -0.101990, -0.101488, -1.150124, -0.381613, -0.647669,
    -0.189636, -0.143979, -0.325936, -0.266167, -0.145866, -0.065568, -0.124393,
    -0.045606, 0.013528,  -0.010605, -0.116314, 0.052373,  0.027240,  0.097467,
    -0.061587, 0.123712,  0.077796,  -0.068001, 0.115076,  0.081389,  0.120667,
    -0.135319, 0.079989,  -0.136878, -0.334192, -0.197982, -0.071666, 0.041795,
    0.058773,  -0.092001, -0.044553, 0.068951,  0.073655,  -0.048740, -0.102729,
    0.026062,  -0.095706, 0.080237,  -0.076993, 0.064904,  0.102861,  -0.059241,
    0.074157,  0.108725,  0.082050,  -0.347691, -1.055619, -0.852636, 0.124831,
    -0.042672, 0.033604,  -0.081471, 0.022643,  -0.128806, 0.012395,  0.013950,
    0.046652,  -0.060543, 0.064929,  0.034190,  -0.135656, 0.074632,  -0.027706,
    -0.037568, -0.017232, 0.008349,  0.121231,  0.064264,  0.004584,  -0.003499,
    0.055653,  0.054263,  -0.249861, 0.023381,  -0.005391, -0.084640, -0.131659,
    0.148043,  0.046288,  0.106616,  0.120514,  -0.117100, 0.016684,  0.088265,
    -0.061398, -0.014717, -0.146427, -0.094224, -0.173160, -0.061084, 0.073890,
    -0.019132, -0.030565, 0.026568,  0.055864,  0.114119,  0.053510,  0.033879,
    -0.047384, -0.003313, -0.043985, -0.095739, 0.051357,  0.004863,  0.054395,
    0.105904,  -0.112664, 0.097419,  -0.068560, 0.050499,  0.040302,  -0.068875,
    0.051976,  0.102682,  -0.084237, 0.003968,  -0.112605, -0.128393, -0.174397,
    -0.009846, -0.030024, -0.133616, -0.069888, 0.030974,  -0.173873, 0.019873,
    0.107221,  -0.037036, 0.102815,  0.095762,  -0.074889, -0.013554, 0.038205,
    0.087069,  -0.024249, 0.111750,  -0.017896, 0.020216,  0.090175,  -0.112692,
    -0.034424, -0.673399, -0.454449, -0.760309, -0.243209, -0.139948, -0.009202,
    0.177380,  0.165595,  0.059391,  0.032300,  -0.056492, -0.084388, -0.082554,
    -0.018025, 0.033377,  -0.020125, -0.042594, -0.333014, -0.133896, -0.010440,
    0.038049,  0.034171,  0.161500,  0.007453,  0.099684,  0.166799,  0.036209,
    -0.005321, 0.012587,  -0.145773, -0.006764, -0.053705, -0.034034, 0.213063,
    0.041811,  0.001333,  -0.105485, -0.161440, -0.089258, -0.094317, -0.104951,
    -0.040792, -0.033506, -0.278148, -0.060513, -0.027803, -0.108744, -0.070555,
    -0.014738, 0.048646,  0.242298,  -0.088654, -0.100368, 0.014519,  0.008720,
    -0.051072, -0.158524, 0.008691,  -0.502117, -0.038849, -0.184456, -0.040406,
    0.115738,  -0.041313, -0.251977, 0.328794,  0.200094,  0.215522,  -0.044480,
    0.140073,  -0.059167, 0.106044,  -0.130386, -0.265847, -0.199976, -0.039825,
    -0.011893, -0.027639, 0.061959,  -0.043983, -0.057148, -0.051806, 0.021394,
    0.015009,  -0.031649, -0.072612, -0.042056, 0.136448,  0.041097,  0.182222,
    -0.024969, -0.050790, 0.070038,  -0.059056, -0.022900, 0.032006,  -0.595066,
    0.212071,  -0.068825, 0.143696,  0.066628,  0.097407,  0.090244,  -0.030319,
    -0.310752, -0.227047, -0.165487, -0.135226, -0.142501, 0.015051,  0.029465,
    -0.071495, 0.128380,  -0.031899, -0.009711, -0.020122, 0.072218,  -0.069393,
    0.118623,  0.133838,  0.036330,  0.193309,  0.066997,  0.103062,  0.012861,
    0.126154,  0.064999,  0.060222,  -0.337454, 0.363913,  0.249578,  0.076114,
    0.176857,  0.065068,  -0.016805, -0.410697, -0.420800, -0.425746, -0.004465,
    -0.081722, -0.145313, 0.032391,  0.038648,  -0.035122, -0.051106, -0.100388,
    0.058883,  -0.107710, 0.064870,  0.072066,  -0.026657, -0.068679, -0.017804,
    0.110907,  0.092298,  -0.049833, 0.093482,  -0.029225, -0.008095, -0.015428,
    -0.478141, -0.517833, -0.348920, -0.177308, -0.282737, -0.343471, -0.059916,
    0.225415,  0.245703,  -0.008994, -0.162830, -0.036163, -0.035043, 0.149019,
    -0.108489, 0.000860,  0.042202,  -0.122721, -0.194340, -0.207079, 0.072387,
    0.003567,  0.015353,  0.081777,  0.009533,  0.210494,  0.015045,  0.019434,
    -0.083888, 0.055240,  -0.080285, 0.097760,  0.001080,  -0.208201, -0.006049,
    -0.094548, -0.005478, -0.002866, 0.103898,  0.058963,  0.093181,  0.068803,
    0.108756,  -0.080105, -0.119485, -0.098426, -0.122588, 0.013919,  0.058046,
    -0.039047, -0.219364, -0.027165, -0.077255, -0.173556, 0.079233,  0.031703,
    -0.018262, 0.018751,  -0.065629, -0.048951, -0.098929, -0.117748, 0.031566,
    -0.141934, 0.055729,  -0.218939, -0.076159, -0.033829, -0.005842, -0.034898,
    -0.045908, 0.014818,  0.144158,  0.011022,  0.160519,  0.166436,  0.098753,
    0.165865,  0.064471,  -0.118791, -1.281796, -0.694349, 0.078564,  -0.181331,
    -0.156589, -0.198575, -0.266959, -0.107327, 0.012892,  0.196720,  0.101025,
    0.085451,  -0.011599, 0.098849,  -0.086905, -0.010475, 0.027659,  -0.117289,
    -0.098879, -0.125232, 0.040501,  0.017846,  0.007531,  0.123390,  0.010480,
    0.166977,  -0.055758, 0.123854,  -0.137734, 0.103186,  0.067828,  0.035108,
    0.009614,  0.084380,  -0.059021, -0.005627, 0.004291,  0.033129,  0.037346,
    0.034998,  0.070230,  -0.052704, -0.058946, -0.004791, -0.068875, -0.080885,
    0.041095,  0.067519,  -0.333748, 0.093925,  0.175789,  0.005863,  0.346327,
    0.123194,  -0.008916, -0.464671, -0.358335, -0.162626, -0.047566, -0.043622,
    -0.120217, -0.026298, -0.084658, 0.040498,  0.039063,  -0.024029, 0.030168,
    0.013225,  0.118772,  0.047819,  0.034462,  0.103499,  0.022096,  0.081286,
    0.051099,  0.025233,  -0.020716, -0.048833, 0.058600,  -0.066043, 0.150245,
    0.004878,  -0.145903, -0.157415, -0.092837, -0.022171, 0.034840,  -0.043384,
    0.180013,  -0.060077, 0.085197,  0.169577,  -0.150796, 0.209274,  -0.022264,
    -0.008965, 0.090785,  0.113407,  -0.043808, -0.107557, 0.093166,  0.033544,
    -0.106734, 0.044169,  0.025995,  -0.132774, -0.084241, 0.022981,  0.064673,
    -0.033364, 0.019822,  0.023992,  0.053502,  0.039269,  -0.021762, -0.021746,
    0.050037,  0.001485,  0.010884,  -0.019556, 0.036784,  -0.052731, -0.124798,
    -0.041325, -0.118556, -0.143003, -0.006115, -0.005095, 0.076206,  0.002539,
    0.013982,  -0.057349, -0.115160, 0.022359,  0.059570,  0.020439,  0.047975,
    -0.092345, -0.090513, -0.007995, -0.029670, -0.043046, -0.096758, -0.010761,
    -1.023646, -0.201102, -0.023016, 0.113075,  -0.150080, -0.010308, -0.063984,
    -0.298264, -0.489944, -0.311489, -0.285668, -0.103422, 0.035036,  -0.041948,
    -0.001105, 0.039042,  -0.053172, 0.201773,  0.149845,  0.148453,  0.046467,
    0.140504,  0.091667,  -0.030499, -0.306705, -0.294051, -0.353167, -0.209177,
    0.101205,  0.003064,  0.082449,  -0.078614, -0.081150, 0.049107,  -0.227061,
    -0.093350, -0.125990, -0.010914, -0.072893, 0.019049,  -0.032823, 0.256582,
    0.131034,  0.074814,  -0.176875, 0.129338,  0.071160,  -0.030847, 0.154334,
    -0.220311, -0.266536, -0.013744, -0.029100, -0.126994, 0.036898,  0.189797,
    0.162243,  0.236855,  0.119975,  -0.025826, 0.108265,  0.093540,  -0.064537,
    0.057173,  0.132786,  -0.226831, 0.019122,  0.346269,  0.207558,  0.267540,
    0.244748,  0.279044,  0.306061,  0.204207,  0.140659,  -0.016370, -0.012443,
    -0.066756, -0.161258, -0.118308, -0.123475, 0.080349,  -0.201564, -0.086138,
    -0.068995, -0.094682, -0.027290, 0.010914,  -0.100055, 0.174745,  0.071257,
    -0.134428, 0.045301,  -0.018078, 0.007708,  -0.153215, 0.069973,  -0.184609,
    0.053793,  0.226067,  0.223719,  0.161238,  0.147414,  -0.085385, -0.024396,
    -0.073831, -0.123608, -0.141447, -0.067317, 0.029971,  -0.003238, -0.054997,
    -0.344717, 0.079273,  -0.095171, -0.213223, -0.108286, 0.129611,  0.047762,
    -0.075253, 0.114348,  0.024195,  -0.243508, -0.049546, -0.133360, -0.117048,
    0.000829,  0.087712,  0.398287,  -0.598033, 0.390145,  0.265207,  0.062703,
    0.152182,  -0.131428, -0.021153, 0.100005,  0.096698,  0.058514,  0.014472,
    -0.138300, -0.036762, -0.158488, -0.032534, 0.103824,  0.112352,  0.026283,
    -0.095024, 0.098312,  0.048031,  0.122427,  -0.029071, -0.012628, 0.065212,
    -0.110243, -0.100946, -0.076838, -0.074420, 0.020232,  -0.103556, 0.193096,
    -0.123503, -0.573274, -0.377778, -0.263907, -0.197413, -0.146214, -0.205282,
    -0.123202, 0.009235,  0.220495,  -0.458341, -0.119677, 0.019653,  0.038331,
    0.092438,  -0.761770, -0.133247, -0.002603, -0.354198, -0.236230, 0.068556,
    -0.018314, -0.021869, -0.043054, -0.377027, -0.405404, 0.023699,  0.065620,
    0.082645,  -0.031255, -0.036593, 0.047106,  0.073974,  -0.245514, -0.261515,
    0.016964,  0.051859,  -0.005774, -0.119600, -0.206968, -0.073609, -0.133233,
    -0.138779, 0.005433,  -0.018238, -0.038885, -0.014499, -0.251503, 0.069788,
    -0.079183, -0.241441, -0.165056, -0.107349, -0.014974, 0.059844,  -0.126847,
    -0.138464, -0.112095, -0.017864, 0.089040,  -0.095584, -0.031959, -0.071884,
    -0.222248, -0.011944, -0.100204, -0.135914, -0.092815, -0.008416, 0.051612,
    0.039217,  -0.038449, -0.366324, -0.491310, -0.199069, -0.141518, -0.070710,
    0.114807,  0.059419,  0.286175,  -1.251726, -0.374504, -0.483359, -0.378619,
    -0.742440, -0.478523, -0.248040, -0.100800, -0.067810, 0.006433,  -0.022957,
    -0.020193, -0.053907, 0.054376,  0.005204,  -0.129324, -0.005487, -0.061489,
    -0.065999, -0.041714, 0.123890,  0.013124,  0.046304,  0.065363,  -0.025102,
    0.138234,  -0.464578, -0.082655, -0.041797, 0.045775,  0.073884,  0.078194,
    0.085418,  -0.045599, 0.019617,  0.089954,  -0.119531, 0.089699,  -0.034906,
    0.054498,  -0.067647, -0.029663, 0.096239,  -0.022064, -0.051353, 0.096253,
    0.055475,  0.104842,  -0.506327, 0.480393,  -0.010545, -0.044057, 0.197471,
    -0.048601, -0.004144, -0.017011, -0.049962, -0.141574, -0.132972, 0.023086,
    -0.036961, -0.133376, 0.030282,  -0.129266, 0.054518,  -0.051040, 0.010372,
    -0.029700, 0.083292,  0.091012,  0.068778,  0.218544,  0.212473,  0.029668,
    -0.139927, -0.014554, 0.048323,  -0.130194, -0.137279, -0.403254, 0.044047,
    -0.042470, -0.098528, -0.182096, 0.066886,  0.106590,  -0.040456, 0.142409,
    -0.107319, -0.309530, -0.125836, -0.010211, 0.042152,  -0.093919, -0.088323,
    -0.079462, 0.006101,  -0.009888, -0.063188, 0.048629,  0.006483,  0.001502,
    -0.093970, -0.052126, -0.076077, 0.062192,  0.063749,  0.036250,  0.078628,
    -0.046874, -0.060243, 0.035141,  -0.054329, -0.070124, 0.006788,  -0.020485,
    -0.098167, -0.043119, -0.077149, -0.046711, -0.070704, 0.030665,  0.049851,
    -0.073605, -0.009352, -0.142310, 0.061110,  0.106369,  -0.049292, 0.071511,
    -0.063610, -0.105019, -0.100019, -0.089837, 0.041372,  0.068860,  -0.027296,
    0.014913,  0.042280,  -0.021227, -0.108105, 0.092834,  0.117324,  0.058880,
    -1.299192, -0.105704, -0.057659, 0.136340,  0.069881,  0.130292,  0.161520,
    0.132103,  0.066679,  0.026715,  -0.163677, 0.008695,  0.022385,  0.042820,
    -0.020201, 0.001869,  0.138309,  0.060733,  0.099712,  0.171611,  0.200966,
    0.225987,  0.093322,  0.134494,  0.125671,  -0.044246, -0.018556, -0.145787,
    -0.137778, -0.035498, -0.052608, -0.252951, -0.182555, 0.037583,  -0.150622,
    -0.256376, -0.225173, -0.060744, -0.031260, -0.001986, -0.084432, -0.013703,
    -0.376947, -0.064435, 0.060138,  0.055262,  0.038676,  -0.155713, 0.013821,
    -0.470068, -0.462360, -0.062550, -0.025928, 0.109359,  -0.102751, -0.189634,
    -0.056496, -0.218407, -0.013076, -0.029576, 0.075059,  -0.114709, 0.082672,
    0.231830,  -0.184254, 0.220997,  -0.076772, -0.004922, 0.009654,  0.117674,
    0.146161,  0.114053,  0.321890,  0.373050,  0.367240,  0.130139,  0.121359,
    -0.088581, 0.113081,  -0.046360, 0.036101,  0.112767,  0.099067,  0.116385,
    0.080311,  0.085202,  0.154273,  -0.033427, 0.047155,  0.066820,  0.274222,
    0.209388,  0.102737,  -0.066154, 0.018671,  0.204255,  -0.225464, -0.048156,
    -0.211986, 0.042126,  -0.154146, -0.122812, 0.028170,  0.055510,  0.019759,
    0.222973,  -0.034412, 0.097984,  0.040173,  -0.093114, -0.102660, -0.190603,
    -0.070908, -0.123846, -0.088347, -0.038675, 0.087043,  0.055455,  0.146950,
    -0.101018, 0.022673,  -0.103129, -0.092932, -0.145707, 0.064384,  0.088029,
    0.050031,  0.300766,  -0.685312, -0.220495, -0.286215, -0.467639, -0.548824,
    -0.573084, -0.449691, -0.029903, 0.178266,  0.116230,  -0.015171, 0.025321,
    -0.065107, -0.125118, -0.144223, -0.025479, 0.077459,  -0.036702, -0.126040,
    0.098105,  0.007716,  0.077237,  -0.048816, 0.032812,  0.112259,  -0.010356,
    -0.070151, -0.033058, 0.071473,  0.012001,  0.008357,  -0.058570, -0.015165,
    -0.407568, -0.356028, -0.285773, 0.091115,  0.047014,  -0.034448, -0.330336,
    -0.391086, -0.135875, 0.228984,  0.095314,  0.318885,  0.054877,  -0.038052,
    -0.631909, -0.005598, -0.120561, -0.062550, 0.040023,  -0.039608, 0.104048,
    0.040042,  -0.042231, -0.027124, -0.027026, -0.250065, -0.147197, 0.056872,
    -0.020616, 0.055515,  0.039127,  0.096596,  0.051482,  -0.023305, 0.056806,
    0.029341,  0.045121,  0.142728,  -0.010431, -0.026963, -0.119516, -0.008718,
    0.089695,  -0.073680, -0.086120, -0.083157, -0.243840, 0.036995,  -0.094224,
    -0.199165, -0.105207, 0.012058,  0.035864,  -0.078020, 0.005231,  -0.043538,
    -0.173487, 0.023093,  -0.074365, -0.118604, -0.109911, 0.002578,  -0.212960,
    -0.112396, -0.031556, -0.054924, -0.048387, -0.040688, -0.088827, 0.009798,
    0.128358,  -0.092266, -0.103426, -0.099833, -0.047902, 0.115113,  -0.076258,
    -0.128934, 0.173850,  -0.949112, -0.302102, -0.622488, -0.732388, -0.607493,
    -0.753236, -0.133792, -0.142022, -0.203588, -0.117455, -0.082618, -0.103283,
    -0.063506, -0.047943, -0.142559, -0.067016, 0.112485,  -0.054208, 0.105237,
    0.033148,  0.179121,  0.160160,  0.142709,  0.012247,  0.003928,  -0.009372,
    0.059006,  0.122840,  0.114273,  0.012104,  -0.013625, -0.183613, 0.082239,
    0.079905,  0.075140,  0.071521,  -0.028840, 0.048197,  0.001345,  -0.023665,
    0.007394,  -0.039853, -0.005385, -0.008199, -0.019048, -0.008108, -0.018860,
    0.401267,  -0.812768, -0.886865, -0.617901, -0.850674, -0.882418, -0.850831,
    -0.352797, -0.062173, -0.027472, 0.110292,  0.013134,  -0.003185, 0.073080,
    -0.147917, -0.107107, -0.062733, 0.147344,  0.010286,  0.008900,  0.156110,
    -0.027120, 0.071699,  0.079779,  0.112701,  0.122666,  0.144891,  0.355105,
    0.276607,  0.057274,  -0.073944, 0.022100,  -0.280358, -0.041322, -0.082393,
    -0.119765, -0.057452, 0.015097,  0.126008,  -0.013320, -0.038163, -0.038553,
    -0.093866, 0.056716,  -0.111421, 0.012093,  0.063173,  -0.047287, 0.115885,
    0.069927,  0.019516,  -0.007340, -0.090912, 0.028919,  0.012348,  -0.034436,
    0.099831,  -0.099019, 0.056460,  0.063239,  0.038100,  0.078653,  -0.081084,
    0.080903,  -0.026648, -0.087941, -0.008024, -0.006302, -0.068432, -0.073274,
    -0.004593, -0.025803, 0.020053,  0.052916,  -0.040489, 0.018214,  -0.052861,
    -0.047637, 0.025268,  -0.052623, -0.113871, -0.074777, -0.006856, -0.014347,
    0.019766,  0.092551,  -0.045296, 0.048889,  -0.015680, 0.060125,  0.078799,
    -0.005792, 0.090628,  0.018912,  0.103758,  0.113340,  -0.063825, -1.286904,
    -0.261079, -0.885764, -0.683159, -0.692490, -0.587323, -0.261002, 0.023687,
    0.127486,  0.162957,  -0.018936, -0.070397, 0.021467,  -0.053765, -0.145295,
    -0.006536, -0.148739, -0.131644, 0.039159,  -0.169107, -0.182278, -0.196029,
    0.022096,  0.080990,  0.075540,  0.167016,  0.069220,  0.013881,  0.035031,
    0.057516,  -0.035148, -0.315535, -0.225040, 0.103132,  0.001548,  0.072617,
    0.008539,  -0.008158, -0.060961, -0.100648, -0.003974, -0.190314, 0.108075,
    -0.012377, 0.088921,  -0.031203, -0.082989, -0.176269, 0.106956,  -0.232224,
    -0.074475, -0.042977, 0.178300,  0.118947,  0.023089,  0.000978,  0.010177,
    -0.237166, -0.037154, -0.167944, 0.088853,  0.032090,  -0.111542, -0.243934,
    0.108191,  -0.015866, -0.018541, -0.152335, 0.153906,  0.207397,  0.203512,
    0.063624,  0.000338,  -0.045931, -0.073100, -0.015645, -0.046518, -0.031514,
    0.042438,  -0.053589, -0.092724, -0.139117, 0.085584,  0.115035,  -0.136132,
    -0.124114, 0.104945,  0.109428,  -0.277837, 0.009577,  -0.065975, -0.016343,
    -0.072335, 0.046709,  0.043171,  -0.490893, 0.031555,  0.175233,  -0.078815,
    -0.057435, 0.089397,  0.182435,  0.085514,  0.091850,  -0.050179, 0.067616,
    -0.092388, 0.003971,  0.062108,  0.082924,  -0.134138, 0.017180,  -0.071030,
    -0.078305, 0.108620,  -0.036413, -0.116905, 0.080553,  -0.091474, -0.219639,
    -0.091958, -0.170950, -0.073508, -0.104562, 0.012021,  -0.000823, -0.112560,
    -0.150372, 0.320031,  0.174231,  -0.037566, 0.064342,  0.252172,  0.120382,
    0.090763,  -0.027768, -0.141076, -0.137140, -0.006982, -0.028921, -0.145355,
    -0.032059, -0.065351, -0.078172, -0.085306, -0.045809, -0.079428, 0.035570,
    0.088352,  0.041751,  -0.010072, 0.024771,  -0.088825, 0.036782,  0.036887,
    -0.112320, 0.071039,  -0.019495, -0.059346, -0.307910, -0.265224, 0.063421,
    0.030213,  -0.360077, -0.135928, 0.125697,  0.024941,  0.211132,  0.044580,
    -0.379570, -0.000983, -0.022966, 0.012166,  -0.049715, -0.129864, 0.185600,
    0.033742,  -0.101658, -0.069118, 0.068163,  -0.003398, -0.370635, -0.386790,
    -0.088383, -0.030751, -0.097362, 0.021954,  -0.091846, -0.044418, 0.077058,
    -0.046555, -0.040224, -0.088382, -0.183540, -0.054522, 0.036919,  -0.260097,
    -0.163441, -0.130025, 0.059228,  -0.020032, -0.097157, -0.069198, -0.123606,
    -0.028878, -0.060396, -0.069892, 0.045090,  0.009989,  -0.103776, -0.156073,
    0.092662,  -0.039954, -0.122274, -0.008746, 0.018876,  -0.044620, -0.107400,
    -0.063666, -0.056749, 0.101030,  -0.025156, -0.086298, 0.011258,  -0.022095,
    0.038354,  0.003679,  0.021548,  -0.007734, -0.115548, -0.326227, -0.108936,
    -0.162771, -0.246791, -0.146817, -0.177876, 0.063083,  0.077748,  -0.043769,
    -1.564556, -0.222152, -0.054199, -0.758336, -0.224079, -0.186416, -0.081811,
    -0.301202, -0.054701, 0.113145,  -0.118446, -0.095639, -0.031060, -0.046224,
    -0.000488, 0.031388,  0.128703,  -0.124095, -0.140960, -0.016661, 0.059422,
    -0.022112, -0.140336, -0.053829, 0.078232,  -0.244303, -0.439875, -0.222093,
    0.014099,  0.105697,  0.032190,  -0.051730, -0.004951, -0.044894, 0.040272,
    -0.020109, -0.083006, -0.011842, -0.080000, -0.069370, -0.040132, -0.033439,
    0.099444,  0.089306,  0.072026,  0.114786,  0.007121,  0.083674,  -0.347889,
    0.180896,  0.245544,  -0.061707, 0.055288,  0.050564,  0.130447,  0.033551,
    -0.056975, 0.080101,  0.091161,  -0.059488, -0.124544, 0.042187,  0.005796,
    -0.071344, -0.024174, -0.012512, -0.070439, 0.054020,  0.077663,  -0.019276,
    0.041553,  0.048177,  -0.008824, -0.217231, -0.122745, -0.155071, -0.153804,
    -0.038846, -0.085508, -0.047526, 0.132008,  -0.002416, -0.127045, -0.024049,
    -0.011815, 0.039243,  -0.031121, -0.015825, -0.049580, -0.105263, -0.311987,
    -0.044219, -0.133283, -0.152532, -0.079510, 0.056293,  -0.014842, 0.045379,
    -0.060352, -0.017083, 0.025793,  0.076413,  0.092313,  0.029162,  0.112386,
    -0.103288, 0.021520,  -0.030853, -0.068268, 0.083445,  -0.020124, 0.073380,
    -0.039073, 0.026899,  0.090478,  -0.022720, 0.020336,  -0.134434, 0.068586,
    0.014964,  -0.066503, 0.083124,  -0.010568, 0.088626,  0.105176,  -0.038716,
    0.035754,  -0.001974, 0.031823,  0.069698,  0.022567,  0.089561,  -0.052164,
    0.059627,  0.085973,  -0.034804, -0.105165, 0.072785,  -0.077228, -0.118931,
    0.093972,  -0.044276, -0.079427, -0.081395, -1.013595, 0.179441,  0.197183,
    0.027453,  0.107924,  0.351434,  0.087859,  0.222948,  0.108924,  -0.003064,
    -0.133313, -0.127730, -0.106976, -0.131988, -0.141791, -0.061315, 0.010929,
    -0.065881, 0.070704,  -0.160263, 0.019344,  0.055671,  0.176549,  0.205944,
    0.121409,  0.033658,  -0.050561, 0.062428,  -0.115270, -0.079736, -0.014315,
    0.029959,  0.034956,  0.139757,  -0.038315, -0.184233, 0.027734,  -0.037358,
    0.003659,  0.049624,  -0.074397, -0.073559, -0.373914, -0.097931, 0.021349,
    -0.018043, 0.042440,  0.002078,  0.025795,  -0.229653, -0.064930, -0.011833,
    -0.242588, -0.239084, -0.299351, -0.014162, -0.003725, -0.194654, -0.112855,
    -0.116173, 0.031920,  0.076754,  0.071561,  0.061141,  -0.376562, 0.332521,
    0.228893,  0.191682,  0.016985,  -0.025389, 0.011381,  0.107283,  0.014300,
    0.035104,  -0.254659, -0.102845, -0.101878, 0.073391,  -0.042150, 0.011935,
    -0.062637, -0.062999, -0.036298, 0.010587,  0.023915,  0.146687,  0.037707,
    0.097344,  0.070857,  0.004484,  0.003018,  -0.038364, -0.133734, -0.055379,
    0.006011,  0.072210,  -0.899184, 0.031043,  -0.045964, 0.031150,  -0.099874,
    -0.039372, 0.034978,  -0.027369, 0.109349,  0.189588,  -0.084245, 0.034081,
    -0.124454, -0.127949, 0.083224,  -0.086632, 0.007064,  -0.114009, -0.002725,
    0.041007,  0.071779,  0.038621,  0.052417,  0.049386,  -0.042641, 0.156195,
    0.026392,  0.142680,  0.070226,  -0.105722, 0.032898,  0.030307,  -0.750946,
    0.351096,  0.265890,  -0.163488, -0.601186, -0.399883, -0.132301, 0.151629,
    0.125555,  0.137622,  -0.073436, -0.146771, -0.024705, -0.068576, 0.045752,
    0.054570,  -0.110876, 0.081084,  0.088505,  0.035940,  0.084502,  -0.016791,
    0.023524,  -0.010133, 0.066619,  -0.107264, 0.030895,  -0.073285, -0.075770,
    0.073070,  0.051590,  -0.054722, -0.252322, -0.294086, -0.241773, 0.243516,
    0.065166,  -0.051613, -0.314034, -0.085206, 0.275170,  0.238867,  -0.006551,
    -0.073319, 0.056659,  -0.392232, -0.087287, -0.042129, 0.141969,  -0.217014,
    -0.047911, -0.100448, -0.065885, 0.007105,  -0.018268, -0.003412, -0.095405,
    -0.026636, -0.005720, 0.172744,  0.064269,  -0.194996, -0.094304, 0.017489,
    -0.022478, -0.252806, -0.049454, -0.064797, -0.054010, 0.043971,  0.127866,
    0.160291,  -0.156608, 0.074138,  -0.045224, -0.109992, 0.014991,  -0.125136,
    0.075512,  -0.058038, 0.129672,  -0.129374, -0.112658, 0.029052,  -0.115109,
    -0.109761, -0.065502, -0.099266, -0.044166, -0.001882, 0.169084,  -0.076336,
    -0.074944, 0.003505,  0.027373,  -0.120477, 0.112265,  -0.191621, -0.080916,
    -0.074706, 0.000918,  -0.028792, 0.016705,  0.038369,  0.161207,  0.050438,
    0.052252,  0.022375,  -0.009142, -0.117543, -0.031324, -0.084424, -1.353155,
    -0.290116, -0.153784, -0.068132, -0.883782, -0.383573, -0.022010, -0.432091,
    -0.276808, -0.233950, -0.151593, -0.080033, 0.000632,  -0.135805, 0.087429,
    -0.078035, 0.095191,  0.013567,  -0.024625, 0.062793,  0.140707,  0.002606,
    0.086119,  0.118395,  0.029994,  0.053228,  -0.015608, 0.081036,  -0.079519,
    -0.270532, -0.080374, -0.141991, 0.034291,  -0.038897, 0.056726,  0.118352,
    0.069080,  -0.091770, -0.096517, -0.031977, -0.084992, 0.066331,  -0.071510,
    0.110156,  0.111382,  -0.093491, 0.090766,  -0.021041, -0.361855, -0.003022,
    0.155832,  -0.112991, -0.615113, -0.196355, 0.025826,  0.051190,  0.166118,
    -0.120925, -0.210073, -0.022971, 0.012294,  0.068948,  -0.097703, -0.046114,
    0.040880,  -0.014036, -0.044050, -0.092479, 0.082164,  0.086454,  -0.007139,
    0.062664,  0.104391,  -0.025063, 0.021193,  -0.047091, 0.041464,  -0.170361,
    0.082294,  0.095024,  0.147081,  -0.041553, -0.131523, -0.053909, -0.058010,
    0.041206,  -0.081922, -0.013301, 0.123375,  0.161543,  0.151884,  0.023946,
    -0.024509, -0.329197, 0.052516,  -0.002694, 0.068776,  0.046571,  0.082656,
    -0.033385, -0.081016, 0.110608,  -0.018587, 0.035777,  0.010456,  -0.048726,
    0.096271,  -0.041312, 0.013305,  0.046812,  0.021721,  -0.100016, -0.103249,
    -0.023608, 0.027935,  -0.131791, -0.043376, -0.044596, -0.065572, -0.071018,
    0.035922,  0.006401,  -0.046333, 0.046042,  -0.073642, -0.133023, -0.146263,
    -0.128400, -0.089963, 0.053483,  -0.081671, 0.108081,  0.107090,  -0.091013,
    -0.034370, -0.035002, -0.031294, -0.042374, 0.062001,  0.021658,  -0.056279,
    0.075571,  0.033761,  -0.097114, -1.042761, -0.410357, -0.129761, -0.062141,
    -0.694437, -0.507667, -0.294620, -0.412873, -0.433853, -0.353602, -0.092337,
    -0.005031, 0.061743,  -0.070590, 0.054558,  -0.022701, -0.118093, 0.218130,
    0.092376,  0.041213,  -0.108150, -0.144526, 0.092385,  0.108475,  0.042152,
    -0.109688, -0.137126, -0.212763, 0.026074,  -0.036063, -0.047361, -0.044223,
    -0.069408, 0.177728,  -0.252625, -0.027155, -0.034822, 0.004186,  -0.095895,
    0.080171,  0.029800,  0.137679,  0.179144,  -0.042590, 0.029165,  -0.198658,
    -0.094414, -0.038702, 0.118360,  -0.331018, -0.196531, -0.128623, 0.023865,
    0.065679,  -0.117035, -0.110864, 0.090363,  0.093267,  0.085818,  -0.041728,
    -0.264456, -0.006841, -0.042194, 0.005197,  -0.259496, -0.044457, 0.103228,
    -0.159099, -0.085870, -0.164920, 0.062468,  -0.093192, 0.185838,  0.074533,
    0.050391,  0.006777,  0.001432,  -0.014229, 0.003736,  0.070771,  -0.096591,
    -0.085419, -0.218018, 0.086429,  -0.002884, 0.153466,  0.063404,  -0.031236,
    -0.077242, -0.042459, -0.282014, -0.010113, 0.051896,  -0.099869, -0.099150,
    -0.082919, -0.548476, -0.010371, 0.118414,  0.114952,  -0.068414, 0.065976,
    -0.087510, -0.095651, 0.073278,  -0.012904, -0.113206, 0.008940,  -0.153411,
    -0.039917, -0.002759, 0.030852,  0.054999,  0.048699,  -0.016270, 0.023852,
    0.097735,  0.077780,  0.035842,  0.052501,  0.041931,  -0.031783, -0.124471,
    -0.141721, -0.128063, -0.093047, 0.038139,  0.073129,  -0.292338, 0.227104,
    -0.027014, -0.150484, -0.444556, -0.196579, -0.102803, 0.065293,  -0.008730,
    0.018499,  0.020825,  0.048785,  0.022008,  0.053954,  -0.113854, -0.008736,
    0.055700,  -0.072419, -0.047649, 0.068876,  -0.088514, 0.047668,  -0.056080,
    -0.094272, 0.104152,  0.039457,  0.018155,  -0.052590, 0.033084,  -0.047886,
    -0.090656, -0.075800, -0.213860, -0.065168, 0.010268,  0.279579,  0.174056,
    0.183377,  -0.103802, -0.191416, 0.062086,  0.237301,  -0.204011, -0.168351,
    0.041755,  0.077955,  -0.124487, 0.057884,  0.150416,  -0.076602, 0.005066,
    0.070693,  -0.016423, 0.000755,  0.090026,  0.101370,  0.039656,  -0.238554,
    -0.264376, -0.009145, -0.090620, 0.040764,  0.073391,  -0.094855, 0.002818,
    0.075945,  -0.079512, -0.087546, 0.008514,  -0.004894, -0.041831, -0.030008,
    -0.116421, -0.115384, -0.146591, -0.005465, -0.143345, -0.073936, 0.063662,
    -0.045217, -0.096559, -0.061259, 0.045229,  0.048352,  0.094291,  0.040898,
    0.072137,  -0.002909, -0.093998, 0.037011,  0.052313,  0.038899,  -0.075235,
    -0.007282, -0.057395, -0.064595, 0.070180,  -0.027777, 0.027623,  -0.094530,
    -0.040455, 0.113588,  0.106102,  -0.014559, -0.073498, -0.069120, -0.276616,
    -0.107661, -0.063903, -0.036013, -0.063126, -0.061812, -1.477896, -0.153062,
    -0.138177, 0.108477,  -0.811934, -1.030288, -0.606664, -0.167983, -0.008263,
    -0.168666, 0.008848,  0.087595,  -0.119633, -0.088684, 0.095801,  -0.019816,
    0.053183,  -0.084264, -0.039568, -0.049940, 0.056153,  0.081230,  -0.015024,
    0.031264,  -0.101055, -0.090230, -0.409529, -0.183551, -0.169729, -0.099959,
    0.064388,  -0.102020, -0.058673, -0.062522, -0.050501, -0.066148, -0.007283,
    0.106802,  -0.052498, -0.093580, 0.014752,  -0.059750, 0.086274,  -0.009159,
    -0.095444, 0.096417,  0.049876,  -0.053503, -0.367458, 0.391609,  -0.028036,
    -0.182183, -0.701529, -0.607632, -0.171543, -0.046190, -0.001485, 0.057645,
    0.082139,  0.052855,  0.059220,  0.018280,  -0.091232, -0.089973, 0.072291,
    -0.026814, 0.033735,  0.085118,  -0.060329, 0.030369,  -0.015867, -0.034233,
    -0.032476, -0.055455, -0.309021, -0.018402, -0.084529, -0.101573, 0.073944,
    0.006123,  -0.001595, 0.119717,  0.063490,  -0.017584, 0.169694,  0.167124,
    0.036312,  -0.006504, 0.059067,  -0.117168, -0.268651, -0.219867, -0.113984,
    -0.041553, 0.065661,  -0.118969, -0.115397, 0.084753,  0.005229,  0.036601,
    -0.010119, 0.003035,  0.040274,  -0.103386, -0.100969, -0.036070, -0.041249,
    -0.063869, -0.111514, -0.106671, 0.094302,  -0.062475, -0.047634, 0.091645,
    -0.044178, 0.078229,  -0.054800, -0.115437, -0.019449, -0.092111, 0.076053,
    0.098111,  0.107849,  0.027044,  0.037639,  -0.082504, -0.031651, -0.073858,
    -0.091693, 0.079317,  0.053649,  -0.081608, 0.021199,  0.100117,  -0.065136,
    -0.086258, 0.024407,  0.106907,  0.054604,  -0.005085, -0.105432, -0.096474,
    0.058286,  0.028304,  -0.817876, -0.092811, 0.128932,  -0.146446, -1.013188,
    -0.546349, 0.179996,  0.111908,  0.097659,  0.094205,  0.044890,  0.013004,
    -0.089911, 0.025208,  -0.122108, -0.026304, -0.134461, 0.066275,  0.112216,
    -0.076333, -0.247587, -0.128036, 0.086467,  0.077938,  -0.002211, -0.085086,
    -0.038411, 0.000978,  -0.020412, 0.087841,  0.036754,  -0.106987, 0.008649,
    0.120070,  -0.153223, -0.142472, -0.014368, 0.093654,  -0.006889, 0.107201,
    -0.040920, 0.060923,  -0.097948, -0.130862, 0.061944,  -0.144822, -0.081457,
    0.087034,  -0.021556, -0.280748, -0.011032, 0.042997,  0.063685,  -0.018416,
    -0.102133, -0.202570, -0.224850, -0.017397, -0.221701, -0.142645, -0.091499,
    0.117420,  -0.044857, -0.049536, 0.254477,  -0.358509, -0.191493, 0.087788,
    0.035188,  -0.043883, 0.051087,  0.086283,  0.113774,  -0.145111, -0.051044,
    -0.053452, 0.059444,  -0.057437, -0.036152, 0.005267,  -0.130356, 0.176723,
    -0.043021, -0.008280, -0.079047, -0.019556, -0.024862, 0.028229,  -0.029290,
    -0.032810, -0.010672, -0.070961, 0.084336,  -0.109444, -0.014576, -0.102256,
    0.174688,  -0.247629, -0.125906, -0.009614, 0.042034,  -0.040426, -0.056538,
    0.105038,  0.076102,  0.067010,  -0.060368, -0.033303, -0.122036, -0.058070,
    -0.131352, -0.124584, -0.101609, 0.042695,  -0.095972, 0.092576,  0.196756,
    0.020045,  -0.079966, 0.071191,  -0.141356, -0.256811, 0.039683,  -0.043869,
    0.062918,  -0.057800, 0.045372,  -0.037161, 0.263271,  -0.849301, 0.228101,
    0.014004,  -0.206852, 0.020232,  0.208429,  -0.055690, -0.060369, -0.084061,
    -0.009090, 0.081790,  -0.123620, 0.029568,  -0.082701, -0.107316, 0.031331,
    0.106151,  -0.068844, -0.092619, -0.079543, 0.018405,  0.047505,  0.080817,
    0.047816,  -0.072612, -0.052214, 0.034058,  0.107289,  0.061846,  -0.071492,
    0.104780,  0.403090,  0.312383,  -0.274932, 0.049718,  -0.000139, -0.367914,
    -0.101931, 0.134790,  0.180854,  -0.336910, -0.211473, -0.091277, -0.137237,
    -0.071706, -0.105327, -0.082005, -0.499319, 0.113283,  0.001121,  0.094485,
    0.167509,  0.137210,  0.065379,  -0.298304, -0.076413, -0.331219, -0.087817,
    0.007499,  0.028278,  0.087396,  -0.029499, -0.007443, -0.080205, -0.031015,
    0.015820,  0.002974,  0.026511,  -0.036129, 0.002112,  0.091269,  -0.051468,
    -0.121612, 0.093780,  0.011062,  -0.111778, -0.123011, 0.030897,  -0.043553,
    -0.126828, 0.102440,  0.055299,  0.069426,  0.122841,  0.119028,  -0.142022,
    -0.040717, -0.063597, -0.175193, -0.050438, -0.127679, 0.073243,  0.013905,
    -0.103783, 0.048748,  -0.174598, 0.082274,  0.098623,  0.020758,  -0.032892,
    0.154864,  0.040037,  -0.121712, -0.148116, -0.339576, -0.130595, -0.150324,
    -0.056254, -0.129227, 0.040395,  0.027519,  0.170264,  -1.209601, -0.077471,
    -0.025011, -0.318618, -0.286717, -0.012501, 0.012014,  -0.069379, 0.117935,
    -0.027718, -0.059816, -0.006042, -0.123060, -0.049313, 0.081595,  -0.018863,
    -0.052354, 0.062447,  -0.110246, -0.009437, 0.056939,  -0.006128, -0.136182,
    -0.221315, -0.175145, -0.142401, 0.009355,  -0.075379, -0.017495, -0.035978,
    -0.040327, -0.099789, -0.047748, -0.034911, -0.102149, -0.044655, -0.023683,
    -0.041328, -0.003713, 0.034598,  0.067251,  0.080836,  0.015946,  -0.095409,
    -0.104687, 0.104977,  -0.083571, 0.127430,  -0.791447, 0.292426,  0.011700,
    -0.029664, -0.039562, -0.047776, 0.074368,  0.090927,  0.010585,  0.064798,
    0.087696,  -0.126902, -0.084733, -0.090140, 0.008013,  -0.185536, -0.020044,
    -0.032947, -0.112197, 0.005407,  0.069071,  -0.153373, -0.176828, -0.096545,
    -0.154838, -0.153350, -0.116860, 0.032732,  -0.052814, -0.042869, -0.013541,
    -0.185918, 0.168871,  0.114260,  -0.067183, 0.112579,  0.131215,  -0.151776,
    -0.047501, -0.215481, -0.489157, -0.227583, -0.131179, -0.076655, 0.020141,
    -0.106186, 0.056553,  -0.025607, -0.087176, -0.033146, 0.001926,  0.005658,
    -0.005849, 0.019335,  -0.105466, 0.090559,  0.004909,  -0.093752, -0.062443,
    0.069320,  0.042426,  0.079333,  0.021656,  0.121680,  -0.137938, -0.014653,
    -0.101755, 0.072049,  -0.011745, 0.022561,  0.037687,  -0.008385, -0.007362,
    -0.008496, 0.019069,  -0.080733, 0.046667,  0.067654,  -0.086693, -0.110299,
    -0.117760, -0.082913, -0.032982, -0.047667, 0.028161,  0.043402,  -0.099010,
    -0.018261, -0.024239, -0.092046, 0.096681,  0.009083,  0.008486,  -0.115180,
    -0.070965, 0.287736,  -1.047550, 0.082258,  0.062748,  -0.131256, 0.236105,
    0.280931,  0.203843,  -0.009971, -0.044325, -0.137017, -0.008872, -0.124015,
    0.003940,  -0.046597, -0.123576, 0.036705,  0.161105,  -0.148994, 0.182909,
    -0.036261, 0.113248,  -0.147302, 0.215677,  0.103376,  0.032907,  -0.121882,
    0.067790,  -0.097643, -0.062827, 0.014220,  0.097698,  -0.031133, -0.261593,
    0.211693,  -0.056407, -0.205200, 0.087213,  0.110376,  -0.046791, -0.145907,
    -0.214041, -0.167738, -0.040939, -0.160865, 0.028799,  0.068755,  -0.045905,
    -0.275941, 0.262730,  -0.228141, -0.046077, 0.020576,  -0.052066, -0.131269,
    -0.049558, -0.497633, -0.100919, 0.053685,  0.090922,  0.077361,  -0.066986,
    -0.116560, 0.095059,  -0.178758, 0.233874,  0.293144,  0.363352,  0.323713,
    0.283647,  0.341703,  -0.276664, -0.394851, -0.081560, -0.073340, 0.013745,
    0.040257,  -0.130227, -0.087617, -0.077703, -0.099476, -0.106191, -0.146526,
    -0.171963, -0.032526, -0.110213, 0.174757,  -0.031709, -0.016854, -0.066517,
    -0.149217, -0.105069, -0.049143, -0.099342, -0.052709, -0.074654, -0.403988,
    0.187798,  0.253657,  0.097410,  0.302642,  0.175241,  0.212199,  0.156016,
    -0.077283, 0.046179,  -0.118067, -0.105374, 0.046550,  0.031631,  -0.063417,
    0.016133,  -0.128763, -0.072953, -0.269360, -0.126139, -0.159094, -0.093581,
    0.038391,  -0.096154, 0.078509,  0.126431,  -0.022509, -0.160545, -0.101230,
    0.069467,  0.020232,  -0.050434, -0.207282, 0.309397,  0.398430,  0.372387,
    0.139979,  0.230359,  0.239072,  -0.075124, -0.238266, -0.088933, -0.140405,
    -0.013634, -0.157148, 0.009212,  -0.158778, -0.122313, 0.078631,  -0.048406,
    0.066370,  0.119264,  -0.063875, -0.114166, 0.010851,  -0.084769, -0.029216,
    0.039222,  -0.128905, 0.066028,  -0.101486, -0.047458, -0.061420, -0.001630,
    -0.241841, -0.503146, -0.272345, -0.313790, -0.407756, -0.157725, 0.194591,
    -0.030275, -0.081213, 0.078362,  -0.109360, 0.065769,  0.000888,  0.087455,
    0.106609,  0.013416,  0.061673,  -0.260034, -0.639591, -0.505487, -0.402852,
    -0.121892, 0.047789,  0.070821,  0.109843,  0.099556,  -0.219978, -0.023359,
    -0.060148, 0.085447,  -0.032518, -0.119650, 0.043445,  -0.247924, -0.346422,
    -0.084877, -0.184878, 0.020709,  -0.057559, 0.083688,  0.080499,  -0.192703,
    0.006094,  -0.002747, -0.086915, -0.144466, -0.156186, -0.023956, -0.107103,
    -0.152434, -0.181679, -0.233781, -0.054341, -0.065934, -0.079712, 0.108460,
    0.178948,  0.121959,  -0.070931, -0.070660, 0.005779,  -0.031216, -0.081470,
    -0.002057, 0.073806,  -0.044170, -0.252192, -0.364436, -0.247234, -0.143023,
    -0.034273, -0.069323, 0.030642,  0.036114,  -0.222256, -0.103321, 0.024671,
    -0.047602, 0.033831,  0.073309,  -1.158152, -0.324957, -0.427541, -0.628939,
    -0.800969, -0.613007, -0.586837, -0.247133, -0.242336, 0.082387,  0.009126,
    0.020979,  0.011182,  -0.078932, 0.067384,  -0.041919, -0.026568, -0.087823,
    -0.052395, -0.134692, -0.100635, 0.015548,  0.163383,  0.169718,  0.069719,
    0.014792,  -0.143205, -0.045257, -0.069302, -0.039765, 0.182488,  -0.059450,
    -0.034311, 0.004293,  -0.000316, -0.118039, -0.099491, -0.056416, -0.073488,
    -0.052197, -0.014686, 0.032177,  -0.021247, 0.041677,  0.004228,  -0.103011,
    -0.003648, -0.073690, -0.255124, 0.270454,  0.220330,  0.144291,  0.196302,
    0.109902,  -0.013838, -0.142341, -0.130470, -0.073579, 0.017102,  -0.075352,
    0.044522,  -0.034738, -0.073543, 0.044206,  0.133219,  -0.163884, 0.085501,
    0.023867,  -0.061105, 0.108846,  0.109347,  0.080141,  -0.000635, -0.149865,
    -0.153312, -0.110237, -0.004658, -0.089108, -0.096909, 0.094391,  -0.077557,
    -0.136680, -0.191896, -0.137841, -0.056476, -0.067178, -0.096251, 0.146022,
    0.168607,  -0.038164, -0.315582, -0.151966, -0.058880, -0.020507, 0.041216,
    0.067352,  0.053548,  0.018468,  0.116471,  -0.077643, -0.097996, 0.085670,
    0.026363,  -0.012851, -0.072901, -0.105841, -0.030255, -0.089115, 0.112606,
    0.108789,  0.061136,  -0.064778, -0.074228, 0.033206,  -0.068242, 0.001092,
    -0.035058, 0.007804,  -0.067732, -0.012124, 0.024192,  -0.060078, -0.152241,
    0.029633,  -0.038496, -0.048598, -0.170939, -0.058643, -0.071079, -0.055964,
    -0.074211, -0.106968, 0.036232,  0.075580,  0.108820,  -0.000638, 0.063618,
    0.065280,  -0.050907, -0.033818, -0.070136, -0.118164, 0.027318,  -0.012264,
    -0.644481, -0.088194, -0.086345, -0.127488, -0.269970, -0.131485, -0.285081,
    -0.416384, -0.149889, -0.087401, -0.153944, 0.006843,  -0.002218, -0.098728,
    -0.109485, -0.170754, -0.032700, 0.261084,  0.293822,  0.473104,  0.329729,
    0.428005,  0.303510,  -0.035745, -0.177923, -0.071953, -0.148176, -0.002606,
    -0.132369, 0.041353,  0.013126,  -0.113997, 0.027711,  0.068869,  -0.149643,
    -0.290083, -0.297495, -0.100958, -0.029422, 0.009414,  0.181143,  0.057881,
    -0.212549, -0.008370, 0.060608,  -0.009730, -0.046253, 0.101657,  0.108145,
    -0.628812, -0.501124, -0.585221, -0.314539, -0.243779, 0.035953,  0.095737,
    0.174198,  -0.497097, -0.034729, -0.099328, -0.008233, -0.041528, -0.066671,
    -0.035800, -0.292425, 0.087290,  -0.099251, -0.003239, 0.442561,  0.330088,
    0.260935,  0.098130,  -0.052304, -0.087025, -0.030720, 0.047911,  -0.036713,
    0.043041,  -0.077289, 0.030668,  0.115347,  -0.021364, 0.044822,  -0.111626,
    -0.040824, 0.067303,  -0.040301, -0.011727, 0.189373,  0.095503,  0.121974,
    -0.066126, -0.068282, -0.123426, 0.064215,  -0.063916, -0.447223, 0.041936,
    -0.293372, -0.020863, 0.125903,  0.002811,  0.054493,  -0.046708, -0.118288,
    -0.107345, -0.181569, -0.084098, 0.014621,  0.013231,  0.051949,  -0.095911,
    0.052162,  -0.039767, -0.029029, -0.068625, -0.030479, -0.008154, -0.043579,
    0.003431,  0.039239,  0.053220,  0.136709,  -0.029428, 0.138661,  -0.079342,
    -0.050258, 0.000438,  -0.349853, -0.173187, -0.397317, 0.176108,  0.234774,
    0.145444,  0.246097,  -0.124949, -0.355412, -0.281053, -0.097138, -0.019014,
    -0.029051, 0.062611,  0.047713,  -0.157502, -0.151362, 0.028582,  0.050662,
    -0.053394, 0.109169,  -0.096182, -0.009906, -0.055486, 0.045536,  0.093313,
    -0.012590, -0.006724, 0.053234,  0.096114,  -0.091223, 0.102044,  -0.207160,
    0.027853,  0.150242,  -0.829988, -0.483251, -0.463623, 0.128711,  0.113825,
    0.060704,  -0.030487, -0.097849, 0.062606,  -0.070108, -0.202446, 0.021119,
    -0.077843, 0.064822,  -0.162456, 0.071660,  -0.159899, -0.162163, -0.330914,
    -0.096868, 0.025010,  0.110615,  0.097399,  -0.008867, 0.058486,  0.158995,
    -0.162119, 0.080044,  -0.017128, -0.136929, -0.187442, 0.167056,  -0.173312,
    -0.072117, 0.011707,  -0.009549, -0.062605, 0.132698,  0.090571,  0.020320,
    -0.027487, -0.024921, 0.017003,  -0.109933, -0.052209, 0.042321,  -0.224068,
    0.012378,  -0.180747, -0.194554, -0.057037, -0.126765, 0.097064,  -0.047896,
    0.137443,  -0.003515, -0.015234, 0.163584,  -0.021763, -0.020560, -0.042176,
    0.088238,  -0.203603, -0.072367, -0.108122, -0.202110, -0.093180, -0.033205,
    0.101957,  0.095591,  0.038027,  0.073578,  0.149135,  -0.046812, -0.048802,
    -0.024935, -0.033689, -1.265041, -0.343066, -0.814698, -0.320305, -0.225478,
    -0.090027, -0.361495, -1.073868, -0.193522, -0.088554, -0.045743, 0.004322,
    -0.038121, -0.132881, -0.034238, -0.024938, 0.141682,  -0.065219, 0.185716,
    -0.127628, 0.048602,  -0.057961, -0.033019, 0.166406,  0.169540,  0.219112,
    0.106294,  0.059818,  0.057140,  -0.126477, 0.058327,  -0.015758, 0.108808,
    0.060884,  0.005779,  -0.014996, -0.022985, -0.107656, 0.061891,  -0.038779,
    0.054020,  -0.095863, 0.018710,  0.074475,  0.117295,  -0.008846, 0.049892,
    0.045270,  -0.331377, -0.945302, -0.646456, 0.081157,  0.179659,  -0.076400,
    0.008949,  -0.116699, -0.400401, -0.094652, 0.003174,  -0.136130, -0.070309,
    0.064606,  0.031096,  -0.143955, 0.133360,  -0.027157, 0.124098,  -0.112110,
    0.033221,  -0.055703, 0.157031,  0.123408,  0.110019,  0.036063,  0.110055,
    0.022994,  -0.069369, -0.125804, 0.112975,  0.107549,  0.131504,  -0.119010,
    0.111016,  -0.050478, -0.120374, -0.072704, -0.031499, 0.002394,  0.101168,
    0.181698,  0.169372,  0.107655,  -0.004252, -0.227293, 0.058720,  0.054853,
    -0.059605, -0.055344, -0.103761, 0.037933,  -0.079901, 0.114017,  0.112704,
    0.073899,  0.040541,  -0.006039, -0.049149, -0.087436, 0.113842,  0.099464,
    -0.015177, -0.061000, 0.008871,  -0.073488, 0.092550,  -0.130822, -0.078267,
    0.080768,  -0.030046, 0.069443,  0.093105,  0.004604,  -0.008458, 0.059484,
    0.007875,  0.052965,  0.017241,  0.021294,  0.079000,  0.034335,  0.005981,
    0.027174,  0.052150,  0.016871,  -0.033129, 0.018256,  -0.050952, -0.103273,
    0.062315,  0.070086,  -0.068132, 0.054016,  0.103821,  -0.030608, -0.928470,
    -0.315009, -0.889816, -0.527919, -0.155738, -0.127179, -0.343773, -0.592506,
    -0.586960, -0.169206, -0.041476, -0.110550, -0.027025, -0.059642, -0.059815,
    0.034642,  -0.052697, -0.192215, -0.071906, 0.169211,  0.170060,  0.268760,
    0.091135,  0.070628,  -0.056618, -0.384903, -0.153310, -0.125310, 0.031287,
    -0.009002, -0.008739, 0.075466,  0.047867,  0.061650,  0.119959,  0.012659,
    -0.235312, -0.256622, -0.173402, 0.016756,  0.095154,  0.010691,  0.038133,
    0.039890,  -0.051374, -0.129847, -0.010859, -0.126406, 0.097780,  0.014987,
    0.098570,  -0.241414, -0.255289, -0.001126, -0.013191, 0.158559,  0.036070,
    0.039139,  -0.043609, 0.255231,  -0.281931, -0.065392, -0.006798, 0.010332,
    -0.347958, 0.072933,  0.203517,  0.168482,  0.068092,  0.119282,  0.199415,
    0.072981,  0.018462,  -0.031998, -0.082912, -0.102301, 0.010037,  0.088751,
    -0.089005, -0.070859, -0.070990, -0.111279, -0.136938, 0.054291,  0.115847,
    -0.006098, -0.136550, -0.055022, 0.183417,  -0.374611, 0.052160,  0.068702,
    0.065832,  0.101669,  -0.094792, -0.101789, -0.521073, 0.008514,  0.070493,
    0.094237,  -0.022690, -0.009277, -0.032035, -0.019672, 0.047125,  -0.116268,
    0.059748,  -0.109454, -0.083145, -0.129003, -0.130982, -0.070650, -0.094872,
    0.066302,  -0.038724, -0.057036, 0.054358,  0.041257,  0.018767,  -0.126896,
    -0.115635, -0.111848, -0.130435, -0.024279, 0.034128,  0.036881,  0.097147,
    0.101891,  -0.362378, 0.411551,  0.261640,  0.101945,  0.010452,  0.107018,
    0.039368,  0.044985,  0.090248,  0.017521,  -0.119399, -0.003242, 0.061475,
    -0.129190, -0.053842, -0.057817, -0.138685, -0.053387, 0.057355,  -0.093570,
    0.056363,  0.083695,  0.086286,  -0.116637, 0.087924,  0.028609,  -0.103125,
    0.094981,  0.114147,  -0.106343, -0.058549, 0.062530,  -0.066189, -0.277389,
    -0.147699, -0.075923, -0.114602, -0.392581, -0.098388, 0.045407,  0.180029,
    0.233126,  -0.276542, 0.044554,  -0.144856, -0.140119, -0.127470, -0.015079,
    0.023603,  -0.008530, -0.430332, -0.310883, 0.006426,  0.101307,  0.069248,
    -0.031805, -0.079594, -0.344715, -0.171022, 0.002998,  0.028166,  -0.124385,
    -0.037538, -0.068865, 0.023164,  -0.282473, -0.040106, -0.019926, 0.039070,
    0.056721,  -0.093837, -0.085370, 0.037140,  0.024487,  0.062776,  0.074617,
    -0.092238, 0.028907,  0.029642,  -0.094832, -0.047869, 0.059488,  -0.229636,
    -0.123577, 0.028051,  0.026920,  0.007633,  0.023665,  0.022744,  -0.123446,
    0.055065,  -0.095715, -0.026612, -0.031443, 0.078643,  0.015503,  0.029357,
    -0.019237, -0.277152, -0.036135, 0.014821,  0.128296,  -0.060582, 0.018500,
    -0.247822, -0.143520, -0.267711, -0.022315, -0.012050, 0.093709,  -0.099546,
    0.002877,  -1.389277, -0.357806, -0.565063, -0.194918, -0.109624, -0.304149,
    -0.101112, 0.008615,  -0.119507, 0.124313,  0.079740,  -0.082446, -0.074138,
    0.022642,  -0.096587, -0.015404, 0.087748,  -0.084568, -0.086992, -0.040891,
    0.009100,  0.010617,  -0.035376, -0.124894, -0.089948, -0.220805, -0.391580,
    -0.131439, -0.014424, 0.031983,  0.201320,  -0.061656, 0.032673,  0.018483,
    -0.048543, 0.046696,  0.056081,  0.009451,  -0.130602, 0.060368,  0.110069,
    0.111367,  0.052842,  0.038100,  -0.012370, -0.081868, 0.109863,  -0.022523,
    -0.352213, 0.245651,  0.099547,  -0.030599, 0.065530,  0.024397,  0.048617,
    0.074657,  0.026364,  0.015215,  0.087790,  -0.138652, -0.065312, 0.000616,
    -0.101095, -0.085869, 0.012317,  -0.056476, -0.087375, -0.057389, 0.121243,
    0.072236,  -0.006773, -0.110935, -0.006138, -0.255713, -0.138035, 0.071070,
    0.115354,  -0.054632, -0.019079, -0.082070, 0.038012,  0.058221,  -0.125115,
    -0.151342, 0.001095,  -0.064575, -0.218083, 0.018649,  0.013753,  -0.439002,
    -0.175245, 0.008809,  0.021772,  0.115530,  -0.102333, -0.051931, 0.097384,
    0.025728,  0.093481,  0.091015,  0.009874,  -0.042232, 0.089811,  0.075805,
    0.034236,  0.037695,  -0.016024, 0.006814,  -0.027883, 0.094348,  0.062001,
    -0.091736, 0.075857,  -0.055738, -0.080657, 0.055415,  0.035777,  -0.155265,
    0.141892,  -0.030455, -0.080330, -0.076904, -0.090415, 0.055688,  -0.038065,
    -0.100369, -0.117727, 0.071112,  0.001356,  -0.086960, -0.099623, 0.054818,
    -0.050911, -0.091908, -0.012272, -0.006054, 0.108782,  -0.098584, 0.004584,
    -0.041725, -0.090967, -0.025582, 0.102719,  0.086122,  -0.881267, -0.201106,
    0.041368,  0.185087,  -0.120880, 0.265233,  0.348935,  0.041956,  -0.073365,
    -0.096787, -0.016806, -0.098292, -0.121525, -0.066238, -0.072533, 0.060833,
    0.033192,  0.140017,  0.055975,  0.214508,  -0.076386, 0.119508,  0.107977,
    0.056004,  0.041811,  -0.059633, 0.061408,  0.014110,  -0.070667, 0.050166,
    0.057109,  0.075944,  -0.041962, 0.080880,  -0.148688, -0.061700, -0.160853,
    0.030255,  -0.006226, -0.017991, 0.109595,  0.172495,  -0.266313, -0.186525,
    -0.141291, 0.040860,  -0.096591, -0.000787, 0.118884,  -0.433877, -0.213242,
    -0.044192, -0.025257, -0.128633, -0.198730, 0.066342,  -0.074726, -0.271748,
    -0.161752, -0.106532, -0.139933, 0.036936,  0.102461,  -0.028233, 0.415120,
    -0.118793, 0.124668,  0.243067,  0.232081,  0.128410,  0.035289,  0.019091,
    -0.171149, -0.233787, -0.153425, -0.087445, -0.111104, -0.059210, -0.097516,
    0.054361,  -0.172294, 0.094206,  0.001892,  -0.124510, 0.010427,  -0.031420,
    0.035589,  0.099506,  0.093962,  0.002102,  -0.011507, -0.194257, -0.044150,
    0.041430,  -0.031247, -0.107599, 0.290032,  -0.251978, 0.031091,  -0.004078,
    0.084394,  -0.016836, -0.145163, 0.039509,  -0.002093, -0.149501, -0.191616,
    -0.093587, 0.028936,  0.050445,  -0.034596, 0.059716,  -0.056972, -0.072543,
    0.032613,  0.063737,  -0.008003, -0.151862, -0.058640, 0.081075,  0.018319,
    -0.019823, 0.059485,  -0.000928, 0.048868,  -0.104478, -0.008337, 0.041653,
    0.198231,  -0.717727, 0.299687,  0.311150,  -0.123814, 0.162092,  0.062999,
    -0.084674, -0.167690, -0.245467, -0.188159, 0.027155,  0.059974,  -0.044532,
    -0.002300, -0.035213, -0.110167, -0.052728, 0.055861,  -0.064995, -0.049424,
    -0.041933, 0.048678,  0.008766,  -0.084747, -0.061540, -0.085713, 0.044492,
    0.019691,  0.024509,  -0.116189, -0.084102, 0.215560,  -0.133418, -0.601275,
    -0.245639, -0.089607, -0.178972, -0.005199, 0.126090,  0.186818,  0.069328,
    -0.155442, 0.151487,  -0.682907, -0.129017, -0.077709, -0.002820, -0.634354,
    0.052453,  -0.060128, -0.179969, -0.034777, -0.145735, -0.076080, -0.020938,
    0.070141,  0.006878,  0.112114,  0.102268,  -0.076461, -0.021375, -0.088327,
    -0.106649, 0.032554,  0.110854,  -0.164967, -0.018482, -0.040404, -0.095926,
    0.050408,  -0.069841, -0.033143, 0.002522,  0.092840,  -0.012895, -0.082656,
    -0.123418, -0.000562, 0.057611,  -0.229481, 0.038845,  0.037897,  -0.047008,
    -0.118859, 0.008438,  0.004805,  -0.002809, -0.082590, 0.007089,  -0.041947,
    -0.106428, -0.034803, 0.018885,  -0.057850, 0.047829,  -0.160267, 0.055588,
    -0.105624, -0.031894, -0.150720, 0.049576,  0.096638,  0.040828,  0.035086,
    0.069354,  0.086027,  -0.063293, -0.232193, -0.067910, 0.104727,  -0.004146,
    0.313646,  -0.992308, -0.167736, 0.025330,  -0.691462, -0.297478, -0.521960,
    -0.189253, 0.010171,  -0.129433, 0.098603,  0.007291,  0.026312,  -0.131203,
    -0.013966, -0.075534, -0.021824, -0.033121, -0.033578, -0.178148, 0.094984,
    0.130036,  0.045877,  0.203544,  0.040547,  0.034792,  0.027641,  -0.134315,
    -0.738722, -0.228311, -0.087588, -0.057790, -0.057265, 0.067255,  -0.079095,
    0.051185,  0.117641,  0.085720,  0.031811,  0.027417,  -0.004907, 0.047737,
    0.069361,  0.062924,  -0.074026, -0.059773, -0.056516, 0.039156,  0.143784,
    -0.720658, 0.517316,  0.053015,  -0.080994, 0.030886,  0.133635,  -0.058378,
    -0.180358, -0.021698, -0.059672, -0.081070, 0.068205,  0.032643,  -0.088501,
    0.063129,  -0.194131, 0.161167,  -0.146001, -0.013708, 0.080995,  -0.012766,
    0.198072,  0.187289,  0.068057,  0.028157,  0.100556,  -0.271188, -0.191168,
    0.031493,  0.009891,  -0.064722, -0.257825, 0.027097,  0.016516,  -0.131645,
    -0.096156, -0.090566, 0.020754,  0.088044,  0.003964,  0.152677,  0.029779,
    0.050368,  -0.282150, -0.081637, 0.093436,  -0.071778, 0.082017,  0.019390,
    0.107657,  0.014466,  -0.035959, -0.008988, -0.121027, -0.092106, 0.003613,
    -0.102811, 0.093323,  -0.099249, 0.022795,  -0.026712, 0.057666,  -0.045843,
    -0.029438, 0.008435,  -0.049317, 0.074791,  -0.108913, 0.060195,  -0.023863,
    0.073495,  0.019276,  0.045526,  -0.084372, -0.086724, 0.007769,  0.075852,
    0.030775,  0.019616,  -0.118218, -0.030969, -0.101466, 0.014938,  0.010139,
    0.039736,  -0.046837, -0.000006, 0.041701,  0.017518,  0.051125,  -0.108009,
    -0.062413, -0.008452, -0.099345, 0.084666,  0.124021,  -1.117151, 0.105142,
    -0.262641, 0.136030,  -0.344121, -0.228700, -0.338774, -0.417642, -0.325995,
    -0.208432, -0.096325, -0.138886, -0.078338, 0.001519,  -0.059684, -0.010033,
    -0.104747, 0.056541,  0.178224,  0.079879,  0.020422,  0.268604,  0.035960,
    -0.292105, -0.167660, -0.139991, -0.024753, 0.013385,  -0.112607, -0.012830,
    -0.080525, -0.172739, -0.337503, 0.101382,  -0.191609, -0.030748, -0.157165,
    -0.108313, 0.174432,  0.026842,  0.110012,  0.124078,  0.005492,  -0.393416,
    -0.087478, -0.058940, 0.085552,  -0.150422, 0.179373,  -0.571463, -0.273436,
    -0.071562, -0.012929, 0.046302,  0.050712,  0.171860,  0.172841,  0.037173,
    -0.363737, -0.170190, 0.111634,  -0.082180, -0.066322, 0.092325,  -0.265309,
    0.087313,  -0.068832, -0.085020, -0.070600, -0.053775, -0.314342, -0.547039,
    -0.532530, -0.214391, -0.063537, 0.130482,  0.017105,  0.133949,  0.026878,
    -0.062847, 0.204735,  0.109755,  0.050291,  0.021539,  0.160740,  0.081199,
    0.112226,  0.053543,  -0.083995, -0.071212, -0.119335, -0.248556, -0.053159,
    -0.067465, -0.107640, 0.288606,  -0.212965, -0.046561, -0.177690, -0.031371,
    -0.001137, -0.112593, -0.086433, -0.154608, -0.140462, -0.120732, -0.069198,
    0.003399,  0.014598,  -0.070019, -0.080503, -0.103244, -0.007836, 0.041521,
    0.035634,  0.128905,  -0.011173, 0.107769,  0.008437,  0.152813,  -0.025889,
    -0.092673, -0.004198, -0.106610, -0.070876, -0.047387, 0.074277,  0.249067,
    -0.850093, -0.287634, -0.503302, -0.485194, -0.457586, -0.556333, -0.642741,
    -0.193972, -0.103374, -0.085524, -0.078092, -0.076151, -0.003501, 0.020744,
    -0.070969, 0.030314,  0.026622,  -0.058308, -0.001406, -0.095671, -0.033900,
    -0.004897, 0.054713,  -0.114405, -0.126009, -0.023752, 0.059187,  0.085726,
    -0.030296, -0.046064, 0.014446,  0.273061,  0.392661,  -0.082488, -0.030943,
    -0.125556, 0.170570,  0.347484,  0.247717,  0.112450,  -0.209258, -0.046919,
    -0.084441, -0.449472, -0.412615, -0.038086, -0.010503, -0.497746, 0.037717,
    0.116470,  0.068279,  -0.126435, 0.070083,  0.112659,  0.030686,  0.127368,
    0.170748,  0.173068,  0.182136,  -0.119686, -0.075056, -0.104068, -0.068714,
    0.008222,  0.088983,  0.035063,  -0.032350, 0.115117,  0.122370,  0.035534,
    0.070463,  0.005344,  -0.074156, -0.120241, -0.063218, -0.017672, -0.096894,
    -0.024487, -0.030957, -0.213287, 0.051892,  -0.147980, 0.090058,  0.069109,
    0.018515,  0.080994,  0.060280,  0.026922,  0.142512,  -0.084782, 0.085672,
    -0.153104, 0.049244,  0.032818,  -0.014070, -0.234023, 0.149810,  -0.016724,
    0.061762,  -0.014022, 0.041519,  0.103887,  -0.024376, 0.058436,  0.165706,
    0.155383,  0.069883,  -0.238490, -0.141664, -0.067387, -0.051963, 0.286638,
    -0.875321, -0.471289, -0.610639, -0.639552, -0.682044, -0.580562, 0.085722,
    0.140023,  -0.029111, 0.098126,  -0.028096, 0.060553,  -0.062676, -0.030639,
    0.076519,  -0.061025, 0.095157,  0.017557,  0.144622,  0.032112,  0.096505,
    0.045912,  0.100022,  0.012797,  -0.040630, -0.099599, -0.063617, -0.311394,
    -0.502367, 0.109400,  0.013981,  -0.118980, 0.070924,  -0.097248, 0.068568,
    0.047794,  -0.096250, 0.061318,  -0.104689, 0.061918,  0.052856,  -0.043642,
    0.057175,  0.004970,  -0.076428, -0.016865, 0.025268,  0.190505,  -0.988659,
    -0.577768, -0.786876, -0.785730, -0.947519, -0.980708, -0.487411, -0.216495,
    -0.082340, -0.015118, 0.022069,  -0.027659, 0.104646,  -0.063314, 0.000003,
    -0.161078, 0.031136,  0.033750,  -0.013499, 0.109373,  0.006612,  0.186011,
    0.038824,  -0.007120, -0.172788, -0.278366, -0.239371, -0.346600, -0.024980,
    -0.026221, -0.039251, -0.188959, 0.007654,  -0.110403, 0.041197,  -0.037135,
    0.067137,  0.188459,  0.171502,  0.134588,  -0.015109, -0.051980, 0.109525,
    -0.430544, -0.233859, -0.106650, 0.048260,  -0.045861, -0.118744, 0.084942,
    -0.003875, 0.004639,  0.049900,  -0.106926, 0.013671,  0.004181,  -0.103628,
    -0.095002, -0.068587, -0.082878, -0.018575, 0.036723,  0.102646,  -0.065052,
    -0.049343, 0.111758,  0.051980,  0.005741,  -0.010404, 0.032068,  -0.053655,
    0.037935,  0.001513,  -0.035957, 0.074325,  0.106420,  0.133788,  0.001437,
    0.004446,  -0.100146, -0.093564, -0.058870, 0.060350,  -0.113535, 0.093643,
    -0.086378, 0.072346,  -0.109691, 0.094542,  0.007982,  0.031080,  0.060625,
    0.011373,  -0.080794, -0.036227, 0.034013,  -1.348506, -0.329948, -0.790093,
    -0.760047, -0.679869, -0.668119, -0.696062, -0.329442, -0.227021, -0.077319,
    -0.074768, -0.008520, -0.027448, 0.001948,  -0.050229, -0.058467, -0.011541,
    -0.253262, -0.022779, -0.136873, -0.183278, -0.132161, -0.195871, -0.340520,
    -0.393674, -0.261847, -0.126187, 0.041898,  0.054288,  0.050041,  -0.046524,
    -0.140997, -0.174896, 0.131882,  -0.077499, 0.083768,  -0.015435, -0.023062,
    0.196372,  0.062284,  0.053193,  -0.085864, -0.139289, -0.195706, -0.232033,
    0.059467,  0.046572,  -0.201027, 0.106830,  -0.013129, 0.136277,  0.109499,
    0.060650,  0.129030,  0.047950,  0.154741,  0.130361,  0.032439,  -0.527194,
    0.033323,  0.068265,  -0.096834, 0.004416,  -0.252026, 0.133041,  -0.252396,
    0.125039,  -0.144929, 0.064618,  -0.013611, -0.094509, -0.169566, -0.362507,
    -0.160776, 0.024305,  -0.113658, 0.050790,  -0.015698, 0.143257,  0.057021,
    -0.051433, -0.047617, -0.000013, 0.160742,  0.039610,  0.126323,  0.124356,
    0.000086,  -0.063298, -0.157243, -0.084966, -0.207050, 0.018079,  0.041991,
    0.018453,  -0.762093, 0.102706,  -0.257915, -0.106771, -0.089543, 0.000669,
    0.049542,  0.003960,  -0.101810, -0.158070, -0.140914, -0.061765, -0.084132,
    -0.007214, -0.041181, -0.015049, 0.085175,  -0.031996, -0.043032, -0.046519,
    0.117563,  -0.023381, 0.180531,  0.136926,  0.097158,  0.173403,  -0.011827,
    -0.011620, 0.096391,  -0.077723, -0.022601, 0.014062,  -0.420622, -0.204809,
    -0.434840, -0.608272, -0.489558, -0.711615, -0.516682, -0.461671, -0.424576,
    -0.331221, -0.024833, -0.097576, -0.059096, -0.031127, -0.018958, -0.024145,
    -0.032640, 0.070147,  -0.076787, -0.050418, 0.031651,  0.085161,  0.040328,
    0.053942,  0.012647,  0.069068,  -0.097722, -0.036457, 0.001073,  -0.043193,
    0.046479,  -0.018940, -0.431477, 0.261966,  0.103600,  -0.244504, 0.128771,
    -0.181887, 0.051392,  0.039728,  0.189665,  0.119095,  -0.038742, -0.106436,
    -0.027940, -0.066366, 0.042498,  -0.101725, 0.143561,  0.019420,  0.216545,
    -0.000056, -0.049980, -0.002709, -0.052869, -0.014440, -0.022640, 0.094180,
    0.202636,  0.121790,  0.050328,  0.089175,  -0.038332, -0.006795, 0.078565,
    0.089981,  0.057357,  -0.052941, 0.059773,  -0.050743, 0.116017,  0.043713,
    0.054475,  -0.041273, -0.005716, 0.071179,  -0.059398, 0.031397,  -0.006831,
    -0.065786, 0.056942,  -0.189966, 0.042226,  -0.040540, -0.057006, 0.083186,
    0.055216,  -0.001259, 0.034046,  0.066066,  0.108765,  -0.068879, -0.048427,
    0.036961,  -0.119195, -0.141621, -0.054153, -0.056196, -0.024757, -0.025355,
    -0.012845, -0.036683, -0.019349, 0.106277,  0.217014,  0.073601,  0.146004,
    0.097717,  0.107763,  -0.091335, -0.036860, -0.021836, -1.317095, -0.345769,
    -0.783053, -0.753756, -0.915599, -0.707857, -0.725661, -0.385110, -0.105010,
    0.026113,  0.150347,  -0.029215, -0.116090, 0.119919,  -0.011807, 0.017402,
    0.167915,  -0.009166, 0.006308,  0.045632,  0.088943,  0.000554,  0.210287,
    0.055822,  0.066526,  -0.013653, 0.022777,  0.022790,  -0.081395, -0.098444,
    -0.055173, -0.023525, 0.007234,  -0.103178, 0.046585,  -0.005549, -0.015850,
    0.094869,  -0.070820, -0.012139, -0.115355, -0.082591, 0.008495,  -0.032923,
    -0.052531, -0.069890, -0.111355, -0.036609, -0.422887, -0.899152, -0.589834,
    -1.078225, -1.014367, -1.007255, -0.860316, -0.796593, -0.334967, -0.244594,
    -0.082681, 0.071039,  -0.045250, 0.035397,  0.069297,  -0.064971, 0.005338,
    0.066329,  0.145987,  0.146898,  -0.010473, 0.008174,  0.166280,  0.128344,
    0.034560,  0.107879,  -0.140277, -0.097839, -0.174692, -0.019797, 0.011203,
    0.051664,  0.019984,  -0.195763, 0.000012,  0.056122,  0.177213,  0.122404,
    -0.072611, 0.125417,  0.040090,  0.115285,  0.171000,  -0.176272, 0.029818,
    -0.115105, -0.022068, -0.016503, -0.069188, 0.088092,  0.045036,  0.110539,
    0.086197,  0.044174,  -0.066901, -0.013834, 0.107205,  0.074623,  -0.057289,
    0.072755,  -0.061924, -0.076090, -0.007822, 0.020739,  -0.038808, -0.018277,
    -0.029822, -0.127106, -0.022061, 0.059582,  -0.008245, 0.042562,  0.082222,
    -0.098490, -0.080905, 0.064078,  -0.160173, 0.019018,  0.065901,  -0.012326,
    0.092295,  -0.047330, 0.114355,  0.027395,  -0.087150, -0.094684, -0.045864,
    -0.002937, 0.109868,  -0.066293, -0.103278, -0.105244, -0.055141, 0.029810,
    -0.065163, 0.062128,  -0.968839, -0.480926, -0.828908, -1.020529, -0.985376,
    -1.128476, -0.669299, -0.783618, -0.721521, -0.287915, -0.088403, -0.034266,
    -0.040812, 0.051053,  0.029998,  -0.053012, -0.145160, -0.285314, -0.162680,
    -0.212319, -0.257398, -0.387580, -0.230704, -0.067237, -0.196137, -0.342009,
    -0.072016, -0.084225, -0.125111, 0.020155,  -0.053065, -0.089605, 0.083645,
    0.232922,  -0.102196, 0.130339,  -0.033015, 0.022394,  0.047162,  0.096097,
    0.131251,  0.059911,  0.070229,  -0.079991, 0.005078,  -0.097865, -0.040161,
    -0.135891, 0.232516,  0.044222,  0.080269,  0.040318,  0.037248,  0.144524,
    0.099513,  0.146752,  0.066689,  0.157337,  0.033095,  0.092174,  0.040042,
    0.020465,  0.058203,  0.036520,  0.219522,  0.263406,  0.117395,  0.048967,
    0.009363,  -0.456195, -0.736595, -0.649584, -0.161019, -0.113018, -0.030546,
    -0.053044, 0.082646,  -0.026504, 0.092491,  -0.111469, -0.197812, 0.034930,
    0.063105,  0.046049,  0.136237,  -0.002238, -0.077872, -0.097480, -0.142778,
    -0.310146, -0.094572, 0.055355,  -0.076130, -0.072191, -0.134084, 0.057771,
    0.247359,  0.203305,  0.015235,  -0.124427, -0.163758, -0.182604, -0.186705,
    -0.145866, -0.157026, 0.081605,  -0.098871, -0.008424, 0.005769,  -0.014027,
    -0.047526, -0.072806, -0.241470, -0.089395, -0.098940, 0.037085,  0.066333,
    0.036283,  0.153225,  -0.098842, -0.018016, 0.043004,  -0.164640, -0.106643,
    0.022910,  0.075362,  -0.018937, -0.025718, 0.255902,  0.131945,  0.078994,
    0.029057,  -0.303172, -0.521151, -0.276352, -0.025598, -0.169473, 0.051736,
    -0.029162, -0.082563, 0.092434,  -0.098798, 0.002006,  -0.098320, -0.111768,
    0.012050,  -0.081572, -0.056996, 0.011361,  0.097284,  -0.055721, 0.066050,
    0.010932,  -0.001704, -0.005936, -0.109043, 0.033663,  -0.057861, 0.054001,
    0.068921,  -0.150803, 0.024676,  0.024103,  0.111778,  0.163670,  0.301249,
    -0.024179, -0.044982, -0.290711, -0.051545, -0.452344, -0.122379, -0.063808,
    -0.096484, 0.103712,  0.077943,  -0.339176, -0.433315, -0.137052, 0.121937,
    0.029113,  0.085328,  0.083852,  0.255668,  0.065577,  -0.188879, -0.080222,
    -0.038799, -0.108474, -0.070465, 0.089875,  0.115496,  -0.246632, -0.168288,
    0.040688,  -0.021494, 0.133518,  0.160526,  0.010962,  0.032309,  -0.046061,
    -0.094469, -0.054637, 0.084876,  0.071974,  0.003423,  -0.068553, -0.040915,
    -0.169763, 0.026173,  0.078918,  -0.004257, 0.003981,  0.228477,  0.128661,
    0.095118,  -0.018170, -0.014364, -0.005665, -0.069032, -0.123935, -0.143849,
    0.083568,  -0.022289, -0.152923, -0.081031, -0.081646, 0.054520,  0.079791,
    0.171696,  0.132359,  0.100674,  0.073225,  -0.258177, -0.238080, -0.054287,
    -0.051266, -0.089797, -0.070997, 0.007830,  0.204441,  -0.259597, -0.287450,
    0.195252,  -0.655743, -0.262860, 0.030454,  0.147325,  0.103017,  -0.057801,
    0.020249,  -0.052335, -0.026144, 0.129419,  0.055783,  -0.074669, -0.084394,
    -0.129761, -0.082437, 0.108636,  0.168187,  0.174829,  0.010689,  -0.123761,
    -0.120653, -0.191571, -0.314143, -0.039001, -0.138488, -0.144723, 0.017911,
    0.060807,  0.038230,  -0.014840, 0.031637,  -0.035011, -0.017522, -0.009475,
    -0.026824, -0.093440, -0.018107, -0.013742, -0.092059, 0.037768,  -0.001025,
    0.092743,  0.101397,  0.100947,  0.176196,  -0.128483, 0.046346,  -0.144947,
    -0.754678, -0.534045, -0.150475, -0.115796, 0.020077,  0.010237,  -0.109130,
    0.072250,  0.033586,  -0.125530, 0.021790,  -0.072267, -0.099708, -0.055707,
    0.063493,  0.026934,  0.060871,  -0.063447, -0.029062, -0.195124, -0.383456,
    -0.266726, -0.225625, -0.113018, -0.112154, 0.002149,  0.053060,  0.026630,
    -0.200459, 0.004148,  -0.168932, 0.112591,  0.163503,  0.020038,  0.122728,
    0.071378,  0.046118,  -0.204539, -0.169245, -0.100801, 0.032661,  -0.007368,
    0.044276,  -0.029846, -0.000561, -0.033425, -0.038192, 0.000503,  0.045646,
    0.017029,  0.129284,  0.070553,  -0.075815, 0.033752,  -0.113434, 0.071033,
    0.084835,  0.060526,  -0.113342, -0.105910, -0.119887, -0.101134, -0.035183,
    0.027191,  -0.041951, -0.016039, 0.096516,  0.081623,  0.056243,  -0.088127,
    0.027550,  0.051170,  0.126712,  0.027390,  -0.023432, -0.085200, 0.010847,
    -0.110846, 0.067870,  0.024528,  0.068111,  0.080260,  0.084440,  -0.094283,
    -0.044632, 0.042684,  -0.077381, 0.022387,  -0.101951, -0.114484, -0.027503,
    -0.091508, 0.020807,  0.182358,  -0.244858, -0.453665, -0.683163, -0.856680,
    -0.473071, -0.155451, -0.171959, -0.007748, -0.119347, -0.122550, -0.122630,
    -0.052660, -0.031470, -0.131130, 0.085368,  0.284975,  0.082165,  0.041109,
    -0.257482, -0.585199, -0.441779, -0.258426, -0.108020, -0.109260, 0.091548,
    0.032108,  -0.043415, -0.095616, 0.034931,  0.091441,  -0.014233, -0.282314,
    -0.131422, -0.007631, 0.135075,  0.082458,  0.257672,  0.050053,  -0.064260,
    -0.078732, -0.337706, -0.102369, -0.014221, -0.035956, 0.092429,  0.004632,
    -0.421181, -0.247375, -0.108241, 0.076973,  0.105780,  0.256757,  0.228357,
    0.154818,  -0.084789, -0.136592, -0.079897, -0.107616, -0.092384, 0.010200,
    -0.066915, -0.092019, 0.304956,  0.183915,  0.061937,  -0.171229, -0.135478,
    -0.367251, -0.601443, -0.738416, -0.460882, -0.128298, -0.013886, 0.074257,
    -0.084053, 0.096806,  0.026954,  0.067620,  -0.083833, -0.128393, -0.087271,
    -0.010992, -0.038655, 0.085127,  0.113657,  0.036116,  -0.000310, -0.274483,
    -0.046864, -0.065389, 0.069645,  -0.087906, -0.015488, 0.063114,  0.212429,
    0.162674,  -0.130578, -0.057768, -0.194164, -0.202803, -0.234498, -0.254104,
    -0.313852, -0.175392, -0.087545, -0.074213, -0.094217, 0.070462,  -0.011504,
    0.050946,  0.115120,  -0.080519, 0.116885,  -0.057784, -0.032295, -0.000997,
    0.127816,  0.048746,  0.174787,  -0.051121, 0.043951,  -0.092347, -0.077614,
    -0.077275, -0.079731, 0.069658,  0.347355,  0.131951,  -0.409408, -0.346012,
    -0.239746, -0.948384, -0.793183, -0.334981, -0.092133, -0.134435, -0.010050,
    -0.095963, -0.119312, 0.079057,  -0.089266, -0.110000, 0.037518,  0.040110,
    -0.093133, 0.041614,  -0.055307, 0.083039,  -0.074346, 0.032936,  -0.078738,
    -0.013083, 0.081149,  -0.032531, 0.107034,  0.048795,  -0.023652, -0.094117,
    -0.052861, 0.014653,  0.225266,  -0.127432, 0.073427,  0.325575,  0.339977,
    0.071774,  -0.099770, -0.197245, -0.022889, -0.147544, -0.135817, -0.091967,
    -0.001715, 0.110941,  -0.231269, -0.123791, 0.012163,  0.050589,  0.033291,
    0.105578,  0.078008,  0.151576,  0.101086,  0.086589,  0.002707,  -0.357436,
    -0.053221, -0.126333, 0.091456,  -0.026584, -0.265123, 0.022645,  0.043841,
    0.167429,  -0.019781, 0.137822,  -0.043209, -0.013374, 0.089945,  0.021364,
    0.072908,  0.085911,  0.066862,  0.065193,  -0.003971, -0.056588, -0.145011,
    0.042873,  -0.015224, 0.080334,  0.170731,  0.064018,  0.220213,  0.056062,
    -0.036870, 0.112083,  0.007841,  -0.062275, 0.042726,  -0.071433, -0.056733,
    0.083267,  -0.200259, -0.124583, -0.046533, -0.009703, 0.002593,  0.061722,
    0.145498,  0.153383,  0.114521,  0.150346,  0.045796,  -0.349971, -0.103585,
    0.053748,  -0.023897, -0.115995, 0.240619,  -0.153507, -0.708609, -0.383737,
    -0.478764, -0.566980, 0.217307,  0.158756,  0.083634,  -0.015046, 0.059129,
    -0.014165, 0.028274,  0.103584,  0.113483,  -0.013953, 0.010369,  -0.096086,
    0.096147,  -0.025396, 0.169054,  0.169358,  -0.047113, -0.043772, -0.074329,
    -0.176498, -0.054058, -0.169483, -0.335436, -0.055809, -0.058523, 0.116764,
    -0.073417, -0.096591, 0.095045,  -0.058082, 0.107925,  -0.024729, -0.043444,
    -0.106221, -0.030950, 0.090360,  -0.058573, -0.099824, 0.087053,  0.063525,
    -0.044956, 0.080731,  0.175571,  -0.017330, -0.716156, -0.481763, -0.370710,
    -1.093648, -0.562448, -0.267175, 0.125079,  0.004077,  -0.027753, -0.116175,
    -0.007682, -0.053692, -0.033595, -0.023542, 0.002476,  0.034242,  0.150440,
    -0.044930, 0.024701,  0.133060,  -0.063029, -0.051957, -0.297002, -0.169384,
    -0.148500, -0.283561, 0.080322,  0.017095,  0.020402,  0.031618,  -0.200004,
    -0.046848, -0.067547, 0.041144,  0.062940,  0.256386,  0.096858,  0.099562,
    0.009042,  0.050774,  0.016243,  -0.371846, -0.069808, -0.060737, -0.005505,
    0.044483,  -0.061217, -0.004498, 0.029165,  -0.042769, 0.065704,  -0.111876,
    0.014578,  0.023897,  -0.049014, -0.068463, -0.074422, -0.033009, 0.048843,
    -0.021242, -0.095423, -0.102421, -0.032096, -0.119267, 0.003350,  0.090635,
    0.051098,  0.024662,  0.050484,  0.051135,  -0.059792, -0.049418, -0.026276,
    -0.086209, -0.059252, 0.008082,  -0.019574, -0.049308, -0.026266, 0.000692,
    0.002845,  -0.033073, 0.017310,  0.054522,  0.039506,  -0.013708, 0.098339,
    0.031373,  0.089344,  -0.110690, -0.112962, -0.093626, -0.055072, -0.008689,
    0.107078,  0.308392,  -1.112591, -0.743913, -0.657097, -0.993834, -0.492924,
    -0.439327, 0.079957,  0.025311,  0.000994,  -0.026725, 0.029168,  -0.124673,
    0.034743,  -0.010747, -0.054694, 0.210408,  -0.250914, -0.359444, -0.003342,
    -0.390088, -0.445355, -0.510541, -0.302176, -0.107266, -0.001823, 0.009764,
    0.064331,  -0.048801, -0.055112, 0.002623,  -0.051521, -0.375783, -0.099922,
    0.053708,  -0.098288, 0.131019,  0.221698,  0.243392,  0.055592,  0.036264,
    -0.018554, -0.016804, 0.006425,  -0.135632, 0.000306,  0.036072,  -0.268559,
    0.081536,  0.225132,  0.066547,  0.039334,  0.038238,  0.115774,  0.231176,
    -0.023890, -0.098035, -0.037588, -0.140759, -0.000111, -0.012165, -0.019728,
    -0.090676, 0.150784,  0.096090,  0.161952,  0.401943,  0.380689,  -0.061101,
    -0.104787, -0.044622, -0.097261, -0.089347, -0.142897, -0.138344, -0.021692,
    0.012496,  -0.057171, -0.078308, -0.077840, -0.113564, -0.064216, -0.071386,
    0.012725,  0.132676,  -0.175309, -0.119695, -0.159027, -0.026500, 0.016023,
    0.108353,  0.139379,  0.116012,  0.060323,  -0.024600, 0.244853,  0.230870,
    0.164125,  0.237082,  0.281263,  0.102226,  -0.003648, -0.072908, -0.054136,
    -0.021857, -0.138115, 0.033494,  -0.086170, -0.028453, -0.005446, -0.194232,
    -0.345679, -0.152014, -0.253776, -0.050456, -0.016214, -0.119802, -0.010432,
    -0.039084, -0.173668, -0.082701, 0.057784,  -0.112674, 0.096544,  0.001971,
    -0.057606, 0.083247,  0.317434,  -0.049593, 0.320505,  0.216148,  0.120648,
    0.047449,  -0.089579, 0.024970,  -0.197130, -0.144016, -0.153017, -0.194008,
    -0.054961, -0.077869, -0.062743, -0.141766, -0.111239, 0.029882,  -0.011372,
    -0.058026, -0.010876, -0.106239, 0.055707,  0.071288,  -0.033005, 0.081377,
    0.075179,  -0.026196, 0.049738,  -0.013340, -0.038233, 0.027152,  -0.227910,
    -0.272476, -0.117815, -0.091854, 0.328912,  0.069566,  0.069854,  -0.321247,
    -0.022218, -0.088305, -0.001117, -0.005746, -0.070677, -0.107355, -0.084656,
    -0.038268, -0.220332, -0.245464, -0.586356, -0.463950, -0.350467, -0.201370,
    -0.220298, -0.273876, -0.206790, -0.193254, -0.060271, -0.080909, -0.047475,
    -0.015178, -0.054806, -0.050552, 0.006373,  -0.111991, -0.155225, -0.119567,
    -0.233856, -0.043353, -0.034023, -0.009279, 0.037680,  0.054492,  -0.093974,
    0.039664,  -0.094590, 0.067507,  -0.119976, -0.127728, -0.220013, -0.077952,
    -0.155645, -0.012158, 0.075107,  0.048446,  -0.092725, -0.055642, -0.052723,
    -0.140811, -0.119897, -0.114600, -0.061738, -0.005339, -0.020759, 0.012985,
    -0.175096, -0.130550, -0.258975, -0.209674, -0.157505, -0.239293, -0.213919,
    -0.130474, -0.246400, -0.062833, -0.212170, -0.052236, -0.050934, -0.102366,
    0.054240,  0.106622,  0.158415,  -0.156439, -0.570386, -0.695880, -0.274007,
    -0.103725, 0.038220,  0.014465,  -0.039280, -0.013723, -0.139067, -0.120379,
    -0.026131, -0.137106, -0.057410, 0.040077,  -0.088053, -0.162894, -0.095210,
